tree
version=v4
num_class=1
num_tree_per_iteration=1
label_index=0
max_feature_idx=7
objective=regression_l1
feature_names=days_ahead dow is_weekend is_holiday month areaCd lcls1 lcls2
feature_infos=[0:24] [0:6] [0:1] none [7:8] -1:6:10:12:8:13:9:0:7:11:1:2:3:5:4 -1:3:7:5:1:6:0:4 -1:14:16:23:37:33:22:25:30:32:11:34:31:24:7:10:35:15:9:40:18:17:26:4:38:13:2:5:36:28:0:19:39:29:6:21:1:12:3:8:20
tree_sizes=5435 5531 5520 5571 5671 5645 5562 5684 5659 5654 5684 5702 5724 5530 5735 5631 5684 5684 5623 5546 5537 5731 5493 5634 5749 5624 5725 5752 5756 5468 5581 5737 5765 5743 5639 5635 5610 5751 5618 5599 5515 5605 5630 5670 5520 5755 5667 5801 5674 5631 5661 5652 5667 5646 5540 5638 5712 5593 5601 5751 5544 5551 5625 5636 5798 5585 5622 5535 5594 5656 5780 5559 5580 5636 5569 5653 5631 5563 5584 5589 5621 5777 5537 5700 5557 5404 5750 5603 5447 5546 5600 5540 5558 5481 5565 5598 5566 5482 5516 5514 5474 5517 5544 5519 5453 5457 5560 5464 5484 5523 5531 5540 5770 5513 5564 5565 5546 5557 5519 5822 5559 5857 5536 5539 5581 5547 5449 5784 5536 5559 5467 5453 5419 5450 5488 5692 5764 5527 5487 5459 5440 5675 5500 5504 5493 5561 5435 5432 5360 5476 5468 5465 5477 5674 5417 5324 5472 5400 5424 5406 5511 5595 5447 5472 5506 5474 5656 5667 5519 5763 5471 5519 5467 5448 5519 5386 5442 5445 5405 5458 5391 5485 5478 5549 5415 5568 5459 5495 5493 5319 5434 5477 5440 5450 5455 5501 5463 5417 5496 5404 5472 5668 5462 5399 5468 5373 5375 5502 5401 5729 5437 5664 5455 5438 5511 5433 5575 5456 5411 5462 5744 5407 5411 5483 5437 5687 5448 5478 5486 5399 5347 5364 5441 5455 5366 5436 5438 5357 5777 5384 5431 5489 5721 5413 5597 5647 5465 5512 5445 5447 5451 5504 5459 5445 5351 5347 5401 5399 5435 5593 5420 5464 5440 5341 5637 5413 5446 5607 5732 5690 5529 5347 5416 5399 5494 5460 5402 5520 5435 5473 5438 5429 5457 5399 5481 5392 5450 5389 5419 5383 5735 5448 5431 5515 5399 5395 5403 5419 5486 5439 5620 5544 5412 5510 5596 5480 5566 5665 5496 5395 5519 5432 5526 5468 5472 5455 5518 5361 5422 5489 5448 5392 5472 5407 5484 5755 5465 5447 5654 5505 5787 5502 5431 5493 5443 5443 5573 5712 5454 5484 5464 5497 5498 5491 5473 5482 5416 5453 5442 5457 5491 5430 5432 5468 5400 5435 5516 5417 5432 5440 5414 5465 5451 5489 5642 5479 5592 5367 5440 5433 5368 5489 5702 5499 5538 5620 5540 5452 5404 5486 5431 5543 5419 5605 5356 5332 5446 5420 5489 5496 5424 5670 5572 5425 5424 5537 5435 5480 5455 5446

Tree=0
num_leaves=63
num_cat=31
split_feature=1 7 7 0 7 0 0 0 7 7 1 0 1 0 7 7 7 0 0 0 0 0 7 1 7 7 0 7 0 0 0 7 7 0 7 6 7 0 0 0 7 0 7 7 0 7 7 7 0 1 7 7 7 0 7 7 0 0 0 7 7 7
split_gain=15298.6 3678.27 2633.8 1330.52 992.937 809.567 508.973 562.604 401.678 319.633 318.526 404.243 290.327 364.512 259.979 246.695 242.284 204.135 266.407 202.758 125.422 99.8261 96.4441 86.2447 85.5657 83.6006 82.4403 63.9207 62.8092 59.3505 47.3562 46.6968 42.2078 40.8687 37.4435 37.1091 34.0334 33.012 30.2231 29.7415 29.3761 28.3669 26.1947 25.4604 24.4575 22.5653 21.4624 20.1715 19.5926 17.8526 16.4156 16.3159 14.8821 14.814 14.1593 13.6686 13.6353 13.3949 12.5091 10.9582 10.7975 9.82599
threshold=3.5000000000000004 0 1 10.500000000000002 2 10.500000000000002 21.500000000000004 16.500000000000004 3 4 4.5000000000000009 11.500000000000002 4.5000000000000009 11.500000000000002 5 6 7 21.500000000000004 16.500000000000004 18.500000000000004 12.500000000000002 21.500000000000004 8 5.5000000000000009 9 10 18.500000000000004 11 8.5000000000000018 16.500000000000004 7.5000000000000009 12 13 14.500000000000002 14 15 16 8.5000000000000018 1.5000000000000002 14.500000000000002 17 12.500000000000002 18 19 18.500000000000004 20 21 22 12.500000000000002 5.5000000000000009 23 24 25 8.5000000000000018 26 27 8.5000000000000018 15.500000000000002 13.500000000000002 28 29 30
decision_type=2 9 9 2 9 2 2 2 9 9 2 2 2 2 9 9 9 2 2 2 2 2 9 2 9 9 2 9 2 2 2 9 9 2 9 9 9 2 2 2 9 2 9 9 2 9 9 9 2 2 9 9 9 2 9 9 2 2 2 9 9 9
left_child=1 3 12 4 27 24 7 8 33 21 11 46 13 -2 44 41 36 18 39 45 43 29 51 34 37 -19 42 53 38 -7 -29 58 -20 61 -17 -10 -8 -3 -6 -11 -28 -12 -15 -14 47 -16 -4 -13 -36 54 -18 -9 -33 -1 -22 -21 -26 -35 -25 -24 -41 -5
right_child=2 5 10 6 28 9 16 22 35 17 15 14 20 26 19 23 50 25 32 55 49 -23 59 31 56 -27 40 30 -30 -31 -32 52 -34 57 48 -37 -38 -39 -40 60 -42 -43 -44 -45 -46 -47 -48 -49 -50 -51 -52 -53 -54 -55 -56 -57 -58 -59 -60 -61 -62 -63
leaf_value=40.408999252319333 41.238999366760254 40.194999313354494 42.616499137878421 40.538749217987061 40.65624923706055 40.244499301910402 40.717499351501466 41.619249248504637 41.174499320983884 40.372749233245848 42.13049945831299 41.45099925994873 41.20499925613403 40.28799924850464 40.644999217987063 42.208249282836917 40.994999313354491 40.26274924278259 40.734999275207521 41.182999229431154 41.458749294281006 40.159999275207518 41.232499313354495 41.765749263763425 40.06849927902222 40.463999366760255 40.514499282836915 40.285249280929563 41.030999279022218 40.455499267578126 40.405499267578122 41.463249301910402 41.03724927902222 40.706999206542967 41.680249214172363 41.411499214172366 40.561749267578122 40.292499256134036 40.832749271392821 40.451249313354495 40.815499305725098 42.773999214172363 40.514999198913571 40.904749298095702 41.957499313354489 40.857499313354495 42.038499259948729 41.75599927902222 42.102499198913577 41.15049934387207 41.411249256134035 41.764249324798584 41.692999267578124 40.558499240875243 41.2029993057251 41.419249248504642 40.14049925804138 40.819999313354494 42.3112491607666 41.425499343872069 40.555999279022217 40.680999183654784
leaf_weight=3785 2354 9835 1175 1316 1126 2967 1905 1380 2517 2182 2982 701 480 1019 1130 4692 2694 3678 2638 643 2616 2967 1656 1324 6020 2868 1019 5264 2252 1978 3948 3900 1726 2079 1458 843 4704 3934 4504 2676 1335 3976 1335 6582 1129 1757 2841 428 2916 4708 294 858 5540 1514 2092 2244 2408 2079 1324 2504 1688 763
leaf_count=3785 2354 9835 1175 1316 1126 2967 1905 1380 2517 2182 2982 701 480 1019 1130 4692 2694 3678 2638 643 2616 2967 1656 1324 6020 2868 1019 5264 2252 1978 3948 3900 1726 2079 1458 843 4704 3934 4504 2676 1335 3976 1335 6582 1129 1757 2841 428 2916 4708 294 858 5540 1514 2092 2244 2408 2079 1324 2504 1688 763
internal_value=40.8 40.7873 40.819 40.7971 40.7882 40.7775 40.8049 40.8104 40.8027 40.7836 40.8268 40.82 40.8057 40.7972 40.8135 40.8297 40.7958 40.7874 40.7916 40.8078 40.8093 40.7752 40.8218 40.8269 40.7705 40.7804 40.7892 40.7805 40.8025 40.7796 40.7779 40.8242 40.8011 40.7952 40.8306 40.8166 40.7905 40.7731 40.7997 40.7852 40.7958 40.8379 40.7826 40.8043 40.8278 40.7985 40.8329 40.8228 40.8269 40.8131 40.8076 40.8303 40.8224 40.7849 40.8153 40.8172 40.7664 40.7981 40.8303 40.8172 40.7876 40.7895
internal_weight=159250 95550 63700 47985 22393 47565 25592 15995 9597 25368 40160 12048 23540 7062 8032 28112 9597 17456 10910 5774 16478 7912 6398 21154 22197 6546 4708 14511 7882 4945 9212 12088 4364 6237 9066 3360 6609 13769 5630 6546 2354 6958 2354 7062 2258 2887 4016 1129 4374 9416 2988 2238 9440 5299 4708 2887 8428 4158 2648 4160 4364 2079
internal_count=159250 95550 63700 47985 22393 47565 25592 15995 9597 25368 40160 12048 23540 7062 8032 28112 9597 17456 10910 5774 16478 7912 6398 21154 22197 6546 4708 14511 7882 4945 9212 12088 4364 6237 9066 3360 6609 13769 5630 6546 2354 6958 2354 7062 2258 2887 4016 1129 4374 9416 2988 2238 9440 5299 4708 2887 8428 4158 2648 4160 4364 2079
cat_boundaries=0 2 4 6 8 9 11 13 15 17 19 20 22 24 25 27 28 30 31 32 33 34 36 38 40 42 44 45 46 48 50 51
cat_threshold=4110155779 446 2346436 64 2227961856 40 2227437569 168 99396 1073741824 158 76022272 12 3225419776 306 1073741825 14 33712672 65 18432 67633152 40 4202529 1 18560 1077936128 275 144 2151677952 272 98436 98436 2048 54788656 1082130432 12 0 26 75759616 4 0 10 1610612736 416 150528 2181308432 2214592512 160 18560 64 2160328704
is_linear=0
shrinkage=1


Tree=1
num_leaves=63
num_cat=44
split_feature=1 5 7 5 7 5 7 7 5 7 1 7 1 4 5 5 7 7 4 5 5 7 7 5 4 1 7 7 4 1 7 5 1 1 7 5 5 7 5 7 7 5 5 6 4 6 7 5 7 4 1 7 5 1 1 5 1 5 7 5 1 7
split_gain=14082.2 7512.1 2412.89 2253.93 1360.06 765.876 644.534 623.172 305.669 278.805 266.757 210.398 205.201 197.466 182.267 167.671 167.634 163.454 159.936 136.374 127.121 110.697 97.8148 144.384 109.654 97.7955 95.2595 75.609 69.0261 76.5314 67.7689 65.904 64.4116 57.9155 55.7302 54.1397 53.9982 53.5748 46.8951 45.8726 45.0493 44.7721 42.0406 39.8389 39.8263 39.5801 37.9361 36.1509 44.5471 35.5704 35.5432 34.0547 33.593 33.2465 32.4745 49.4267 50.5091 32.1795 32.0747 31.1197 28.9367 28.824
threshold=3.5000000000000004 0 1 2 3 4 5 6 7 8 4.5000000000000009 9 4.5000000000000009 7.5000000000000009 10 11 12 13 7.5000000000000009 14 15 16 17 18 7.5000000000000009 4.5000000000000009 19 20 7.5000000000000009 1.5000000000000002 21 22 2.5000000000000004 4.5000000000000009 23 24 25 26 27 28 29 30 31 32 7.5000000000000009 33 34 35 36 7.5000000000000009 1.5000000000000002 37 38 4.5000000000000009 5.5000000000000009 39 4.5000000000000009 40 41 42 5.5000000000000009 43
decision_type=2 1 9 1 9 1 9 9 1 9 2 9 2 2 1 1 9 9 2 1 1 9 9 1 2 2 9 9 2 2 9 1 2 2 9 1 1 9 1 9 9 1 1 9 2 9 9 1 9 2 2 9 1 2 2 1 2 1 9 1 2 9
left_child=1 7 5 4 15 12 19 46 11 22 20 33 -2 21 -7 18 38 31 -3 28 37 -9 23 24 45 39 -15 42 29 -5 54 50 -24 57 -30 60 51 -10 -12 -16 -21 -22 -17 -25 -38 -6 -1 48 -23 -48 -8 -14 -11 -32 55 -13 -57 -4 -37 -34 -18 -49
right_child=2 3 8 6 9 14 17 13 10 52 16 30 36 26 25 27 35 -19 -20 40 41 47 32 43 -26 -27 -28 -29 34 -31 53 -33 59 -35 -36 58 44 -39 -40 -41 -42 -43 -44 -45 -46 -47 49 61 -50 -51 -52 -53 -54 -55 -56 56 -58 -59 -60 -61 -62 -63
leaf_value=0.19974996566772454 -0.31939988613128673 0.47910003662109379 1.1850749301910402 -0.41586254596710204 0.0069813263416291351 0.86753751993179318 -0.5794874215126038 0.51530004501342785 1.1335749912261963 -0.6789249753952028 0.88047511100769038 1.3891250610351564 0.35147504806518559 0.11891246795654312 -0.1119499683380127 0.048093781471252588 0.78387497901916492 -0.72642491817474386 -0.069587554931640483 -0.10815623998641968 -0.028374996185302592 1.161137593984604 -0.33100614547729496 0.23072502374649045 0.76699998855590834 0.49526260375976572 0.90952503681182861 0.11878750324249268 -0.33658737182617177 -0.23618752956390382 1.362124881744385 -0.61199996948242197 -0.055137438774108816 1.1258375120162964 0.026250057220459058 1.2557125735282897 -0.11219374179840091 0.52860005855560299 1.4528001308441163 0.22775002479553239 -0.49877494812011708 0.30707505226135262 -0.37122496604919419 -0.34243752956390383 0.18801881074905397 -0.56094993233680712 -0.024324960708618271 0.36810634136199955 0.74490628242492685 -0.29085001945495609 -0.48813744664192193 0.088162465095519948 -0.47157499313354506 1.9872998714447023 0.9750937819480896 0.4422501230239867 1.4960873985290526 0.50155629873275753 0.69135005950927741 -0.31375000953674326 0.41709378957748416 0.80248130917549154
leaf_weight=1065 3603 3900 597 3312 1692 2510 6112 3420 651 705 1393 3576 1015 1977 1197 690 1461 9315 975 360 999 1368 12720 150 480 6314 714 1905 447 3312 1167 8490 1623 6027 1209 1554 4500 864 3353 1509 5115 3285 930 1845 1800 228 1944 504 4416 486 5348 1092 6180 2723 3332 711 711 1986 3822 1557 1948 1056
leaf_count=1065 3603 3900 597 3312 1692 2510 6112 3420 651 705 1393 3576 1015 1977 1197 690 1461 9315 975 360 999 1368 12720 150 480 6314 714 1905 447 3312 1167 8490 1623 6027 1209 1554 4500 864 3353 1509 5115 3285 930 1845 1800 228 1944 504 4416 486 5348 1092 6180 2723 3332 711 711 1986 3822 1557 1948 1056
internal_value=-0.000114286 -0.0122543 0.0180958 -0.0187635 -0.00944647 0.0053758 -0.0264653 0.0179304 0.0255439 -0.0148805 0.0209721 0.0297745 -0.0034609 0.0228184 0.0145754 0.00813317 0.0248282 -0.0306729 0.0141351 -0.0174973 0.0120107 0.025864 -0.0119158 -0.00527809 0.00298755 0.0112292 0.0107209 -0.000183876 -0.0134017 -0.0157005 0.0340474 -0.0280511 -0.0137461 0.0236775 -0.00428744 0.0206424 0.000814797 0.0244262 0.0324643 0.00328899 -0.0236554 0.00754541 -0.00809816 -0.015187 -0.00150555 -0.00234375 -0.000898716 0.0293582 0.0313082 -0.00434426 -0.025449 0.00772319 -0.0235896 0.0398205 0.031307 0.0338936 0.0252095 0.017441 0.0238396 -0.00738994 0.0155455 0.0219745
internal_weight=159250 95550 63700 78600 35580 23540 43020 16950 40160 27180 19330 20830 12010 13455 11530 8400 13531 29265 4875 13755 5799 10764 20295 4395 2400 9020 2691 3525 8280 6624 12220 19950 15900 8610 1656 8785 8407 1515 4746 2706 5475 4284 1620 1995 6300 1920 3495 7344 5784 2430 11460 2107 6885 3890 8330 4998 1422 2583 5376 3180 3409 1560
internal_count=159250 95550 63700 78600 35580 23540 43020 16950 40160 27180 19330 20830 12010 13455 11530 8400 13531 29265 4875 13755 5799 10764 20295 4395 2400 9020 2691 3525 8280 6624 12220 19950 15900 8610 1656 8785 8407 1515 4746 2706 5475 4284 1620 1995 6300 1920 3495 7344 5784 2430 11460 2107 6885 3890 8330 4998 1422 2583 5376 3180 3409 1560
cat_boundaries=0 1 3 4 6 7 9 10 11 13 15 16 17 19 21 22 23 25 26 27 29 31 33 34 36 37 38 40 41 42 44 45 46 47 48 49 50 52 53 54 55 56 57 58 60
cat_threshold=2051 2346436 64 4220 1075318787 398 10000 4106228226 286 33892033 4323 63332900 33 2735747632 289 35 72 612368896 13 50882601 33 1664 2068 6291488 32 8781856 4128 1077954560 34 0 258 1145307136 18 1664 1073742336 2 2308 528 1082130432 44 260 98436 805306880 264 256 36 8 32 33817088 2049 612368384 92 18432 4 67 3 3225419808 96 18432 2
is_linear=0
shrinkage=0.05


Tree=2
num_leaves=63
num_cat=44
split_feature=1 5 7 5 7 5 7 7 7 7 5 1 5 4 7 5 1 4 5 5 1 7 7 5 4 5 7 4 1 7 7 7 1 5 5 1 5 6 7 5 5 5 7 5 7 4 6 7 1 6 7 1 5 7 1 4 4 1 6 5 7 7
split_gain=13025.7 6896.01 2223.1 2141.79 1232.31 703.663 621.252 554.801 301.707 253.965 228.248 225 220.616 176.033 174.4 156.056 153.222 148.205 132.237 130.009 108.254 100.488 93.1746 129.901 95.0004 88.7645 87.2026 75.9491 72.803 70.686 70.1332 65.5971 65.1584 63.8105 62.969 56.4035 55.4998 54.4527 47.0066 46.6245 43.8058 41.9551 50.0011 40.9515 40.5146 36.8663 35.458 35.4302 34.6941 34.5255 33.9629 33.5982 32.3416 31.2955 30.5326 29.9643 29.337 28.6091 41.9143 28.5802 28.238 27.1421
threshold=3.5000000000000004 0 1 2 3 4 5 6 7 8 9 4.5000000000000009 10 7.5000000000000009 11 12 4.5000000000000009 7.5000000000000009 13 14 4.5000000000000009 15 16 17 7.5000000000000009 18 19 7.5000000000000009 1.5000000000000002 20 21 22 1.5000000000000002 23 24 4.5000000000000009 25 26 27 28 29 30 31 32 33 7.5000000000000009 34 35 4.5000000000000009 36 37 1.0000000180025095e-35 38 39 1.0000000180025095e-35 7.5000000000000009 7.5000000000000009 5.5000000000000009 40 41 42 43
decision_type=2 1 9 1 9 1 9 9 9 9 1 2 1 2 9 1 2 2 1 1 2 9 9 1 2 1 9 2 2 9 9 9 2 1 1 2 1 9 9 1 1 1 9 1 9 2 9 9 2 9 9 2 1 9 2 2 2 2 9 1 9 9
left_child=1 7 5 4 15 11 18 50 10 22 29 -2 20 21 34 17 40 -3 27 61 37 51 23 24 46 44 59 28 -5 48 43 -20 -24 54 -8 53 -18 -10 -29 57 -12 55 -43 -17 -13 -27 -6 -36 -4 -25 -1 -9 -11 -21 -23 -34 -52 -22 -59 -15 -38 -7
right_child=2 3 8 6 9 19 14 13 12 52 16 25 -14 26 -16 30 36 -19 31 35 39 33 32 49 -26 45 -28 38 -30 -31 -32 -33 41 -35 47 -37 60 -39 -40 -41 -42 42 -44 -45 -46 -47 -48 -49 -50 -51 56 -53 -54 -55 -56 -57 -58 58 -60 -61 -62 -63
leaf_value=0.18976246738433816 -0.26869116055965442 0.4551450347900392 0.63417231571674337 -0.36837565374374392 0.0066322600245475984 0.56556065690517421 -0.48234312003850949 0.32228498172760034 0.79169502520561219 -0.66951621127128602 0.56593314015865326 0.38734413194656397 1.5203381968140601 0.521323229789734 -0.69010367226600666 0.045689092397689993 0.51735778629779827 -0.066108177185058278 -0.14233917051553729 -0.059802486896515107 1.0571437983512877 0.65411093950271604 -0.34879971027374257 -0.32447176814079293 0.73790005779266366 -0.10658405470848092 0.90227382063865669 0.12293760395050057 -0.19029681086540207 1.0761070504784584 0.11284812808036798 -0.47481121826171879 -0.098686855077743385 0.63378542503714574 -0.50248748397827148 0.52299943542480498 1.2608019224405287 0.20386385703086846 -0.24225813674926755 1.148747580051422 0.10881999993324279 -0.40422480750083933 -0.12776241636276248 -0.35266371774673433 0.10581698203086845 0.17861787021160114 -0.52964620536565798 -0.60222808566689501 1.0129952937364579 0.19205122601985938 -0.02310871267318735 0.59146005344390884 -0.45238374853134167 0.27708748769760128 0.92424839258193969 -0.28134348869323722 -0.27630751848220819 -0.37526715457439441 0.56111379289627072 0.03271686744689966 0.68002622938156143 1.1325356973409653
leaf_weight=1065 4176 3900 2133 2640 1692 1310 6315 1329 468 630 1116 1736 7510 534 9315 690 2639 975 870 903 186 1104 8920 1800 477 4500 675 936 2640 7900 1905 6285 3348 1032 4965 4977 1505 1182 384 3416 2526 2688 1211 930 1708 1800 216 8670 4977 180 1944 3987 5460 1230 3312 558 486 120 128 1482 4354 1200
leaf_count=1065 4176 3900 2133 2640 1692 1310 6315 1329 468 630 1116 1736 7510 534 9315 690 2639 975 870 903 186 1104 8920 1800 477 4500 675 936 2640 7900 1905 6285 3348 1032 4965 4977 1505 1182 384 3416 2526 2688 1211 930 1708 1800 216 8670 4977 180 1944 3987 5460 1230 3312 558 486 120 128 1482 4354 1200
internal_value=-0.000234223 -0.01191 0.0172794 -0.0181465 -0.00906434 0.00507006 -0.0256542 0.0170106 0.0244287 -0.0142369 0.0213991 -0.00211773 0.0307296 0.0216227 -0.0297848 0.00766944 0.0162551 0.0134596 -0.0168507 0.0154621 0.0229764 0.0244983 -0.0116256 -0.00508571 0.00277662 0.00204228 0.0102007 -0.0116944 -0.0143939 0.0255459 -0.000353607 -0.0215841 -0.0133284 0.0293331 -0.0270842 0.0119663 0.0199459 0.012303 -0.000984848 0.0276104 0.00768808 -0.01 -0.0136736 -0.00797546 0.00848292 -0.0014897 -0.00220126 -0.0290693 0.0217837 -0.0145226 -0.000756063 0.0194517 -0.0232459 0.0051805 0.032038 -0.00628192 -0.00401639 0.0112613 0.000403226 0.00488648 0.022687 0.0252778
internal_weight=159250 95550 63700 78600 35580 23540 43020 16950 40160 27180 27150 13920 13010 13455 29265 8400 12140 4875 13755 9620 5500 10764 21090 4365 2385 9744 2691 6600 5280 15010 3525 7155 16725 5448 19950 7110 8498 1650 1320 3850 3642 7805 3899 1620 3444 6300 1908 13635 7110 1980 3495 5316 6090 2133 4416 3906 2430 434 248 2016 5859 2510
internal_count=159250 95550 63700 78600 35580 23540 43020 16950 40160 27180 27150 13920 13010 13455 29265 8400 12140 4875 13755 9620 5500 10764 21090 4365 2385 9744 2691 6600 5280 15010 3525 7155 16725 5448 19950 7110 8498 1650 1320 3850 3642 7805 3899 1620 3444 6300 1908 13635 7110 1980 3495 5316 6090 2133 4416 3906 2430 434 248 2016 5859 2510
cat_boundaries=0 1 3 4 6 7 9 10 12 14 15 16 18 19 20 21 23 24 25 26 28 30 32 34 35 36 37 38 40 41 42 43 44 45 46 47 49 50 51 52 53 54 55 57 59
cat_threshold=2051 2346436 64 4220 1075318787 398 10128 4106228226 286 33892033 2202284088 291 2210816548 33 4295 9612 50882601 33 72 1536 35 3227519008 32 8781824 4128 656 1077954592 290 2181046320 32 0 258 1879048706 8 2049 640 2304 192 2227175424 4 4 2104 96 2202025984 36 19460 32 50855936 32 32 33817088 4 98432 64 2048 4194336 1 65536 64
is_linear=0
shrinkage=0.05


Tree=3
num_leaves=63
num_cat=45
split_feature=1 5 5 7 7 5 7 7 5 1 5 7 1 7 7 4 5 5 7 5 7 7 1 7 4 7 7 4 5 5 1 4 5 5 5 5 1 7 7 7 5 5 1 1 7 5 7 7 7 5 1 6 4 1 7 5 4 1 5 7 7 7
split_gain=11976.4 6298.92 2039.78 2035.15 1135.27 637.049 606.851 509.937 287.739 279.408 186.661 183.874 178.306 162.905 161.644 150.417 148.118 146.304 133.488 107.337 98.1234 90.3022 81.2062 74.9163 74.4111 73.4916 71.1358 100.073 141.452 68.8305 66.6944 61.6517 74.8036 59.2562 58.6732 57.5964 57.4921 55.0862 52.0099 48.1744 45.0038 44.5507 44.086 39.8678 37.8651 36.6394 45.1303 36.5616 35.9639 35.862 35.2858 48.3721 46.3577 33.4478 33.3284 33.0282 32.6406 32.3666 32.0145 31.2415 30.6405 30.0339
threshold=3.5000000000000004 0 1 2 3 4 5 6 7 4.5000000000000009 8 9 4.5000000000000009 10 11 7.5000000000000009 12 13 14 15 16 17 4.5000000000000009 18 7.5000000000000009 19 20 7.5000000000000009 21 22 1.0000000180025095e-35 7.5000000000000009 23 24 25 26 1.5000000000000002 27 28 29 30 31 1.5000000000000002 1.5000000000000002 32 33 34 35 36 37 5.5000000000000009 38 7.5000000000000009 1.5000000000000002 39 40 7.5000000000000009 5.5000000000000009 41 42 43 44
decision_type=2 1 1 9 9 1 9 9 1 2 1 9 2 9 9 2 1 1 9 1 9 9 2 9 2 9 9 2 1 1 2 2 1 1 1 1 2 9 9 9 1 1 2 2 9 1 9 9 9 1 2 9 2 2 9 1 2 2 1 9 9 9
left_child=1 7 4 5 10 12 20 21 11 19 48 -5 -2 36 34 30 -7 18 24 39 33 -1 47 -13 37 55 31 28 44 61 -9 -12 -33 -4 -11 -29 -6 58 -19 -10 -14 -21 -39 -30 -28 -38 -47 -18 -3 -15 -25 52 -52 -20 -32 -17 -42 -24 -8 -31 -40 -16
right_child=3 2 6 8 13 16 17 15 9 14 26 23 40 49 29 25 22 38 53 41 -22 -23 57 50 -26 -27 27 35 43 59 54 32 -34 -35 -36 -37 45 42 60 -41 56 -43 -44 -45 -46 46 -48 -49 -50 -51 51 -53 -54 -55 -56 -57 -58 -59 -60 -61 -62 -63
leaf_value=0.25956200323104855 -0.28999533379673964 -0.091331125813722561 -0.46272597166597862 0.89615211495757097 -0.32517840719223001 0.78032015066742888 0.079729661150276784 0.47701215913891792 0.9744114812493323 0.93833888947963728 -0.067473792213201197 1.6870931770771742 0.21015098606348026 -0.61150291606187823 0.64589591750502573 0.79690072121620192 -0.10131233203411122 -0.094000946019589735 -0.47724822338968526 -0.039649324786662991 -0.65709852298498184 -0.075253310847282512 0.58357034282088305 1.2060696350783111 0.01122812743186934 0.84609750276803986 -0.33603045938014947 0.52153702193498608 0.23572532606124882 -0.28692152417004096 1.0979683281779291 0.79150512356758118 -0.17590443211793882 -0.57126636682599796 1.4884806015461685 -0.11977669099569291 -0.11752779160737976 -0.37662722378969193 -0.42808315572738637 0.38606932373642899 -0.10125485197305704 0.28144624451100791 -0.24619445472955662 0.48181199485063558 0.12339958840608603 -0.1192615078210828 -0.37768236175775521 0.21480820181369786 -0.40941692906618105 -0.42976456110477468 0.8184526709169152 1.3515149443596606 0.32881592833697798 -0.37390072613954506 0.69307988011837018 0.03308106985092181 0.16968697670102095 0.31620562858581547 -0.21835674741268143 0.62113344738483434 -0.51108314809799182 1.2109185570001604
leaf_weight=2610 3603 750 3645 6230 8688 2510 576 2352 897 1533 2616 3420 2107 705 2009 288 1197 360 3496 999 9300 2580 2706 4998 1302 702 624 282 2406 105 1395 423 231 8610 2534 1203 3864 2256 3555 654 4500 4104 2256 2406 504 1134 2604 1509 1020 6120 1890 812 630 3059 5661 1362 1800 3608 120 6776 4485 2569
leaf_count=2610 3603 750 3645 6230 8688 2510 576 2352 897 1533 2616 3420 2107 705 2009 288 1197 360 3496 999 9300 2580 2706 4998 1302 702 624 282 2406 105 1395 423 231 8610 2534 1203 3864 2256 3555 654 4500 4104 2256 2406 504 1134 2604 1509 1020 6120 1890 812 630 3059 5661 1362 1800 3608 120 6776 4485 2569
internal_value=-0.000330298 -0.0115259 -0.0174863 0.0164631 -0.00862321 0.00478132 -0.0248129 0.0161144 0.0233035 0.0194592 0.00353908 0.0280322 -0.00327787 -0.0151805 0.0231418 0.0218777 0.0131716 -0.0188335 -0.0154837 0.0108957 -0.0307559 0.00303846 0.010155 0.0317602 -0.0103681 0.0105867 0.00602989 0.00873571 0.0116498 0.0200323 0.0247236 -0.000121951 0.0136086 -0.0276926 0.0317758 -0.00286195 -0.0124417 -0.0130568 -0.024019 0.0223895 0.000707744 0.00734403 -0.0150597 0.0153671 -0.0043058 -0.00927388 -0.0128068 0.00291944 -0.0114607 -0.0216898 0.0290408 0.02509 0.0213439 -0.0205407 0.0271542 0.0046988 -0.00141046 0.0132721 0.000141643 0.0167828 -0.0248696 0.0248692
internal_weight=159250 95550 78600 63700 35580 23540 43020 16950 40160 22180 12465 17980 12010 23115 15526 11760 11530 21465 13065 6654 21555 5190 9020 11750 6510 2352 10695 7425 5940 11459 9408 3270 654 12255 4067 1485 16290 5208 8400 1551 8407 5103 4512 4812 1128 7602 3738 2706 1770 6825 8330 3332 2520 6555 7056 1650 6300 6314 696 6881 8040 4578
internal_count=159250 95550 78600 63700 35580 23540 43020 16950 40160 22180 12465 17980 12010 23115 15526 11760 11530 21465 13065 6654 21555 5190 9020 11750 6510 2352 10695 7425 5940 11459 9408 3270 654 12255 4067 1485 16290 5208 8400 1551 8407 5103 4512 4812 1128 7602 3738 2706 1770 6825 8330 3332 2520 6555 7056 1650 6300 6314 696 6881 8040 4578
cat_boundaries=0 1 2 4 6 7 9 10 11 12 14 16 18 19 20 22 23 25 26 28 30 32 33 34 35 36 37 38 40 42 44 45 46 48 49 51 52 54 55 56 58 59 60 62 64 66
cat_threshold=2051 4220 2346436 64 1083969539 398 10000 511188 193 38086369 4163 24 2734694944 32 54682212 49 612893184 8 35 1664 3300917282 284 2084 18432 129 37749280 277348353 140 1073760256 34 8650752 256 4096 8848 4096 640 268 4096 1140850690 20 805306880 264 1098908160 46 528 256 0 138 96 8196 33 98436 1073741824 6 4 192 612368384 92 2048 1152 268435473 272 8392704 6 1074003984 310
is_linear=0
shrinkage=0.05


Tree=4
num_leaves=63
num_cat=38
split_feature=2 5 0 0 7 5 7 0 7 7 5 5 7 0 0 0 0 0 0 7 0 5 0 0 7 0 0 7 7 0 0 7 7 5 5 7 7 7 0 5 5 7 7 5 0 0 5 5 7 7 5 7 5 5 7 7 7 0 0 7 0 0
split_gain=8867.9 6283.29 2193.23 1940.47 1552.46 1460.05 1249.64 1107.18 953.325 565.682 464.814 329.883 277.678 274.849 317.853 269.728 430.296 236.582 189.847 188.646 186.416 174.344 171.26 165.038 161.208 157.805 153.379 135.762 131.05 119.145 263.038 112.288 112.093 104.469 83.5911 80.619 78.6818 76.0784 73.7056 70.8307 70.4595 68.6754 68.437 68.149 67.0399 60.4484 56.1029 54.7529 53.9307 52.5776 52.1807 51.4052 48.8494 43.072 41.5202 37.5327 37.5294 37.3127 46.5997 37.2184 36.5368 35.8479
threshold=1.0000000180025095e-35 0 4.5000000000000009 7.5000000000000009 1 2 3 11.500000000000002 4 5 6 7 8 4.5000000000000009 7.5000000000000009 21.500000000000004 16.500000000000004 11.500000000000002 21.500000000000004 9 9.5000000000000018 10 21.500000000000004 21.500000000000004 11 16.500000000000004 4.5000000000000009 12 13 21.500000000000004 15.500000000000002 14 15 16 17 18 19 20 12.500000000000002 21 22 23 24 25 16.500000000000004 12.500000000000002 26 27 28 29 30 31 32 33 34 35 36 21.500000000000004 4.5000000000000009 37 12.500000000000002 20.500000000000004
decision_type=2 1 2 2 9 1 9 2 9 9 1 1 9 2 2 2 2 2 2 9 2 1 2 2 9 2 2 9 9 2 2 9 9 1 1 9 9 9 2 1 1 9 9 1 2 2 1 1 9 9 1 9 1 1 9 9 9 2 2 9 2 2
left_child=1 5 28 24 17 9 11 27 23 35 19 38 33 -10 -15 16 32 53 20 -9 49 48 25 26 -4 54 -7 47 40 30 59 50 -12 -8 36 -1 -29 -20 -2 -13 -3 -32 -18 -24 -21 -41 -27 -6 -14 -11 -17 -31 -44 -5 -19 -22 -48 58 -37 -16 -23 -35
right_child=6 2 3 4 7 8 12 10 13 18 15 39 21 14 29 31 42 22 37 44 55 60 43 -25 -26 46 -28 34 -30 51 41 -33 -34 61 -36 57 -38 -39 -40 45 -42 -43 52 -45 -46 -47 56 -49 -50 -51 -52 -53 -54 -55 -56 -57 -58 -59 -60 -61 -62 -63
leaf_value=0.30257766866207131 -0.17623576381623743 -0.39153860555693482 0.3011556022609771 -0.52961037151239843 0.1004645962615312 0.079707778477668967 0.47296349979460217 0.76617384843245151 -0.38184450848102536 0.42051156584620486 0.28535847716808327 0.76381727952092882 0.36593325513124458 1.1169811836376784 -0.063419727607220186 0.02077072104990485 0.065503922625183716 -0.40234563329190004 0.13355562412023544 -0.13034307339549045 0.89717057679295553 1.1647386021466553 -0.26331384821295745 -0.05631382696449734 1.2265454047942908 -0.068362857274413005 0.6932764683008199 -0.24761625287979838 -0.63897528653062929 -0.077753421542346324 0.31620794134251756 -0.36657560111071902 -0.24324209916755601 0.93564681955158702 -0.48392345669716585 -0.20004062999844585 -0.46225070327959977 0.99990516024529941 0.11231417915403839 0.18703912881851217 -0.55760399761434642 -0.032088844016790574 0.5466049263379722 -0.57331856612741949 0.31576794044971507 0.5536828610882164 -0.22342292538825445 -0.3378748064593971 1.0469219755232335 0.81843698749393257 -0.25238339791059483 -0.35631378336310393 0.20833410125382237 -0.61743837136469804 -0.53776963404193534 0.97018925771117215 -0.4185935962635281 -0.2504212325847151 0.13365938793063137 -0.27566689792335025 1.7755636448712648 0.72361294217936689
leaf_weight=3132 2805 2708 1742 1392 576 1332 4284 1746 3292 4067 435 1820 833 823 960 1371 2022 2805 1893 993 1928 3153 582 999 2342 1416 3663 2356 10424 570 1872 3318 5067 11328 4584 688 1756 459 3740 3558 3204 1420 1626 4593 1986 4744 2244 164 2233 1421 813 1899 1854 5508 2370 4344 1515 516 1892 3978 4204 1888
leaf_count=3132 2805 2708 1742 1392 576 1332 4284 1746 3292 4067 435 1820 833 823 960 1371 2022 2805 1893 993 1928 3153 582 999 2342 1416 3663 2356 10424 570 1872 3318 5067 11328 4584 688 1756 459 3740 3558 3204 1420 1626 4593 1986 4744 2244 164 2233 1421 813 1899 1854 5508 2370 4344 1515 516 1892 3978 4204 1888
internal_value=-0.000409419 -0.00776731 -0.0165229 -0.0119088 -0.0144636 0.00787696 0.0185109 -0.00714379 -0.00143626 0.0174005 -0.000812491 0.00766025 0.0249758 -0.00824339 -0.00460857 -0.00477113 -0.000254453 -0.0244595 0.0229429 0.0129989 0.0255527 0.0314818 -0.0210467 0.0153731 0.0213026 -0.0173333 0.0191091 -0.0213968 -0.0326824 -0.00691186 -0.00402187 -0.0138132 -0.0101418 0.0210851 -0.0231335 0.00482526 -0.0178069 0.0099915 -0.00109077 0.0133143 -0.0265113 0.00692588 0.00963286 -0.0284734 0.00530278 0.011321 -0.0111594 -0.000666667 0.0212289 0.0188229 -0.00492252 -0.0165452 0.0138682 -0.0321739 -0.0235072 0.0314413 -0.0143407 -0.000901481 0.00155039 -0.0113204 0.0357201 0.0233101
internal_weight=159250 114660 73512 57176 53092 41148 44590 30667 20808 20340 21231 16667 27923 14814 11522 16506 11004 22425 14112 4725 11760 10423 15525 5994 4084 10350 4995 9436 16336 10699 8230 5502 5502 17500 8696 6228 4112 2352 6545 10122 5912 3292 5502 5175 2979 8302 5175 740 3066 5488 2184 2469 3480 6900 5175 6272 3759 3096 2580 4938 7357 13216
internal_count=159250 114660 73512 57176 53092 41148 44590 30667 20808 20340 21231 16667 27923 14814 11522 16506 11004 22425 14112 4725 11760 10423 15525 5994 4084 10350 4995 9436 16336 10699 8230 5502 5502 17500 8696 6228 4112 2352 6545 10122 5912 3292 5502 5175 2979 8302 5175 740 3066 5488 2184 2469 3480 6900 5175 6272 3759 3096 2580 4938 7357 13216
cat_boundaries=0 1 3 4 6 8 9 10 11 13 15 16 18 20 22 24 26 27 28 29 31 33 34 35 37 39 40 41 42 43 45 46 48 49 50 51 53 54 55
cat_threshold=2147 67358180 64 2051 2346180 320 1075445764 398 38086369 4096 9488 3271827504 179 1082925057 140 2316 67357844 320 1073741825 4 1619534433 446 12853248 12 1073741824 4 1324 4636 37749280 8396800 298 1073793024 295 35 4252 2160083456 32 2198085648 288 4096 4248 5268 272629761 3223373824 34 9736 29392896 1 1540 156 18464 2418018304 288 67128448 278528
is_linear=0
shrinkage=0.05


Tree=5
num_leaves=63
num_cat=33
split_feature=1 5 0 7 5 7 7 5 7 5 7 5 7 0 5 5 0 1 0 0 0 0 0 1 0 0 0 5 5 7 7 0 5 7 5 7 5 7 7 0 1 7 5 7 7 7 0 7 0 0 0 1 0 0 1 0 5 7 1 7 0 1
split_gain=10259.9 5358.75 2169.75 1755.22 1265.51 1209.88 574.24 548.891 436.871 430.089 293.927 278.612 258.029 233.98 215.312 213.788 185.182 178.181 249.453 162.892 150.826 124.704 165.494 116.07 114.153 111.309 203.865 105.588 105.043 98.4416 91.5762 90.2318 82.8818 81.0404 75.1926 74.6287 73.8749 73.231 70.5492 69.8108 69.508 67.0886 65.0348 65.0277 51.7334 50.5187 49.9046 49.484 48.9045 47.0963 46.9019 46.3637 82.7406 45.3411 43.9415 88.3838 84.5833 53.0886 46.0435 45.1513 48.5215 42.3249
threshold=3.5000000000000004 0 14.500000000000002 1 2 3 4 5 6 7 8 9 10 21.500000000000004 11 12 21.500000000000004 4.5000000000000009 11.500000000000002 21.500000000000004 16.500000000000004 21.500000000000004 8.5000000000000018 2.5000000000000004 16.500000000000004 12.500000000000002 11.500000000000002 13 14 15 16 12.500000000000002 17 18 19 20 21 22 23 16.500000000000004 4.5000000000000009 24 25 26 27 28 8.5000000000000018 29 7.5000000000000009 8.5000000000000018 18.500000000000004 4.5000000000000009 11.500000000000002 15.500000000000002 4.5000000000000009 11.500000000000002 30 31 5.5000000000000009 32 18.500000000000004 4.5000000000000009
decision_type=2 1 2 9 1 9 9 1 9 1 9 1 9 2 1 1 2 2 2 2 2 2 2 2 2 2 2 1 1 9 9 2 1 9 1 9 1 9 9 2 2 9 1 9 9 9 2 9 2 2 2 2 2 2 2 2 1 9 2 9 2 2
left_child=1 8 4 7 6 11 42 17 38 19 14 16 27 20 -5 41 24 18 -2 39 -11 22 47 -13 44 26 61 48 -9 -18 -22 -19 -21 -8 -31 -15 -28 -23 -1 -7 -27 -12 49 46 -4 -41 -14 -10 -6 -3 -20 52 -30 -24 55 -16 59 58 -56 -57 -61 -17
right_child=3 2 5 10 12 9 33 28 21 13 15 23 43 35 54 25 29 31 50 32 30 37 53 -25 -26 40 36 -29 51 34 -32 -33 -34 -35 -36 -37 -38 -39 -40 45 -42 -43 -44 -45 -46 -47 -48 -49 -50 -51 -52 -53 -54 -55 57 56 -58 -59 -60 60 -62 -63
leaf_value=0.23145501963639248 0.19808994748371092 0.069700200771093179 -0.065908622883378953 0.62478080409446923 -0.439809423684277 -0.099042338005568997 -0.23657731939909787 0.71608256273879123 0.67827304761238416 -0.40086733574465294 0.7557813244570174 -0.13128672906513525 -0.57810334888890791 -0.37055106037567748 1.6708022217882552 0.77401328743956987 -0.088498173763245092 -0.10142399088421464 -0.48922832110972686 -0.062474395065307678 0.094294716550618329 0.12687784291422374 0.64368859161704783 0.34646545974889786 0.77749919670487011 0.22284124917551473 0.23823040295007802 -0.48288938271271892 0.64293202780340997 0.71762117115288226 -0.27823397781104531 0.17856373545556484 -0.33405229992252572 -0.38865729302568752 -0.079016894660249554 -0.55169677077232326 -0.32879129559143672 0.94990990223303451 -0.069823536315679752 -0.11539569771984226 0.84799914824028311 0.93930170393450152 -0.17799195206755025 -0.65279488210026571 0.36769790231890964 0.37015705503978025 -0.46911917611338583 0.28611276643067607 -0.22974708968423291 0.36163552604049409 -0.24369949236306354 0.46628670446671522 -0.067741201180923666 0.99041626300960817 1.3775284281638858 0.897271773766672 1.0410886593000555 1.5152854473689126 0.57938320220659312 -0.13958212984360047 0.62488374224642484 0.35995294571957004
leaf_weight=2610 1397 1980 524 3380 2052 2104 3416 2520 975 4538 4350 5112 8475 2520 924 1311 1959 4191 1397 1137 1466 1893 3136 852 2134 1311 461 6360 730 798 3072 5588 2019 4760 444 4287 850 459 2580 510 5244 9830 424 6128 1610 1594 5085 2945 2052 1188 1397 5110 1460 2352 807 146 958 4585 1076 372 372 3933
leaf_count=2610 1397 1980 524 3380 2052 2104 3416 2520 975 4538 4350 5112 8475 2520 924 1311 1959 4191 1397 1137 1466 1893 3136 852 2134 1311 461 6360 730 798 3072 5588 2019 4760 444 4287 850 459 2580 510 5244 9830 424 6128 1610 1594 5085 2945 2052 1188 1397 5110 1460 2352 807 146 958 4585 1076 372 372 3933
internal_value=-0.00049168 -0.010854 -0.0163516 0.0150518 -0.0241245 -0.00747274 -0.0101885 0.00429412 0.0146403 -0.014372 0.0214579 0.00447445 -0.0295504 -0.0190052 0.0277989 0.0185165 0.0109039 -0.00207439 -0.0107015 -0.00436669 -0.0137616 0.0199745 0.0225659 -0.00358219 0.0177366 0.0138796 0.00928299 -0.0231144 0.0133469 0.00182755 -0.007316 0.00162082 -0.0129594 -0.0175055 0.0127796 -0.0260247 -0.0083524 0.00969388 0.00253846 0.00206749 0.0184973 0.0227907 0.00646863 -0.0329577 0.00955951 0.0085076 -0.0308843 0.0147194 -0.0167234 0.00893644 -0.0193271 0.0102736 0.00420091 0.0281706 0.0317838 0.0265512 0.0202381 0.0340754 0.0263339 0.00877778 0.0035809 0.0136918
internal_weight=159250 95550 78600 63700 41920 36680 11768 23790 16950 23247 39910 13433 30152 15883 12620 27290 7469 13970 4191 7364 9076 11760 9408 5964 4268 13110 6555 10464 9820 3201 4538 9779 3156 8176 1242 6807 1311 2352 5190 4208 6555 14180 3592 19688 2134 2104 13560 3920 4104 3168 2794 7300 2190 5488 9240 2772 1848 6468 1883 890 744 5244
internal_count=159250 95550 78600 63700 41920 36680 11768 23790 16950 23247 39910 13433 30152 15883 12620 27290 7469 13970 4191 7364 9076 11760 9408 5964 4268 13110 6555 10464 9820 3201 4538 9779 3156 8176 1242 6807 1311 2352 5190 4208 6555 14180 3592 19688 2134 2104 13560 3920 4104 3168 2794 7300 2190 5488 9240 2772 1848 6468 1883 890 744 5244
cat_boundaries=0 1 3 4 6 8 9 10 11 13 14 16 17 18 19 20 22 24 25 27 28 30 31 33 34 36 37 39 41 42 44 45 46 47
cat_threshold=2051 2608580 64 116 1892553235 398 1074397184 414 10128 38086369 4192 1889010179 12 4708 1619534339 446 396 4291 4232 35 1078067712 258 2197815296 33 4096 2147762688 32 4608 2264934400 33 2108 1073793024 295 37749280 2147483680 32 68 2269141024 1 4588049 128 99456 880803840 349 9792 1879048705 1073741824
is_linear=0
shrinkage=0.05


Tree=6
num_leaves=63
num_cat=45
split_feature=1 5 5 7 7 7 5 7 5 1 7 1 7 5 7 5 7 4 7 5 5 5 7 7 7 4 5 5 5 7 7 5 7 7 1 1 1 7 7 1 1 7 7 5 1 5 1 7 7 7 5 7 1 7 4 7 7 4 1 4 5 5
split_gain=9476.76 4967.26 1672.2 1618.22 912.884 548.662 473.88 403.828 281.189 202.422 192.76 162.492 151.197 145.571 142.72 120.779 122.448 117.6 113.78 94.9183 89.2959 65.6301 65.2669 64.5992 61.8391 59.7581 59.2186 55.1489 54.6515 53.7025 52.0138 52.0054 79.9789 49.8499 47.319 47.2675 44.8335 52.9827 47.2991 45.8889 40.9931 37.5017 37.4536 36.774 36.2436 34.6964 34.2392 33.8385 32.7625 32.3842 30.8143 29.684 28.7861 28.6996 27.5725 27.434 27.1307 28.9071 25.5346 25.3103 25.1615 25.1482
threshold=3.5000000000000004 0 1 2 3 4 5 6 7 4.5000000000000009 8 4.5000000000000009 9 10 11 12 13 7.5000000000000009 14 15 16 17 18 19 20 7.5000000000000009 21 22 23 24 25 26 27 28 2.5000000000000004 2.5000000000000004 4.5000000000000009 29 30 5.5000000000000009 4.5000000000000009 31 32 33 1.5000000000000002 34 1.0000000180025095e-35 35 36 37 38 39 5.5000000000000009 40 7.5000000000000009 41 42 7.5000000000000009 1.5000000000000002 7.5000000000000009 43 44
decision_type=2 1 1 9 9 9 1 9 1 2 9 2 9 1 9 1 9 2 9 1 1 1 9 9 9 2 1 1 1 9 9 1 9 9 2 2 2 9 9 2 2 9 9 1 2 1 2 9 9 9 1 9 2 9 2 9 9 2 2 2 1 1
left_child=1 7 4 6 13 18 11 22 10 19 47 -2 34 48 28 16 -7 24 26 33 42 41 -1 50 46 30 -4 55 -11 -17 -18 -26 -33 -10 -6 51 38 39 -12 -38 53 52 -8 -21 -32 -14 -9 -5 -3 -29 -19 -15 -16 -22 -41 -13 -47 -58 -31 -24 -20 -37
right_child=3 2 5 8 12 15 20 17 9 14 36 27 45 35 21 29 25 23 60 43 40 -23 59 -25 31 -27 -28 49 -30 58 44 32 -34 -35 -36 61 37 -39 -40 54 -42 -43 -44 -45 -46 56 -48 -49 -50 -51 -52 -53 -54 -55 -56 -57 57 -59 -60 -61 -62 -63
leaf_value=0.21524317694823145 -0.21961580238010525 -0.066666802314131066 -0.38991355610072831 0.70477107910188563 -0.2597088730106778 -0.37118275468961298 0.42793412241084178 0.25398887755285243 0.85843920112822902 0.727336775507192 0.42856277596167519 0.34134932913785687 -0.30879546775473055 0.052616330800786315 0.86691394716020442 -0.045530065304308746 0.030127727733041534 0.77503405376533863 -0.4982233407354521 -0.077992658669010242 -0.080883509718398028 0.48945449480017977 -0.017064921844864144 0.73448324381037833 0.74473880452902641 0.018960598957288258 -0.49232183665865858 -0.072352814228187512 1.1998260009000989 -0.4438728997542864 -0.31090523896668326 0.28338796978634628 0.88640721228470687 0.32804192806822602 -0.12436474749915175 0.40325875410597656 1.4236521593435822 1.501874610598148 1.0972392567994995 0.61589183185019614 0.43497237687277385 1.0733818287231041 0.97064804252726677 0.22469048484194085 -0.1989176200045778 -0.51610722818778532 0.50318018901507566 0.83598811247789961 -0.37449920947461096 0.23714711710726172 0.022905255268615577 0.20712813503820016 0.36429196414303533 0.23227119629446236 -0.018024690557957967 0.06086751747967796 -0.45793009101376581 -0.18916666769462795 -0.38044008047610628 -0.24271723857071414 -0.61015509984827965 0.11641753346086753
leaf_weight=2760 4176 750 3720 3540 13152 6480 1310 1179 897 1253 585 1736 3405 6972 1041 360 648 294 3525 999 828 6202 1944 648 2292 1299 8670 5411 3150 4256 2274 756 1644 654 3288 1329 531 3787 1569 531 4977 2492 1200 4104 2274 1590 3537 7260 1020 889 1410 1464 1388 1305 177 1708 1464 366 3724 486 5790 780
leaf_count=2760 4176 750 3720 3540 13152 6480 1310 1179 897 1253 585 1736 3405 6972 1041 360 648 294 3525 999 828 6202 1944 648 2292 1299 8670 5411 3150 4256 2274 756 1644 654 3288 1329 531 3787 1569 531 4977 2492 1200 4104 2274 1590 3537 7260 1020 889 1410 1464 1388 1305 177 1708 1464 366 3724 486 5790 780
internal_value=-0.000547567 -0.0105065 -0.0157995 0.0143909 -0.00777466 -0.0224332 0.00397452 0.0140389 0.0204904 0.0166967 0.0251584 -0.00192391 -0.0136004 0.00323327 0.0198313 -0.0167104 -0.0136581 0.0191674 -0.0280428 0.00940787 0.0125026 0.0167565 0.00240385 0.00918367 0.0216837 -0.00877018 -0.0248065 0.00161125 0.0274983 -0.0214371 -0.0111817 0.0258188 0.0203734 0.0202114 -0.0109848 0.00546187 0.0315716 0.0342021 0.0255803 0.0243795 0.00960674 0.0211215 0.0206349 0.00607276 -0.013054 -0.0198756 0.0174778 0.0208696 -0.01 -0.00117274 0.00396733 0.00379327 0.0164617 0.00382091 0.0162429 0.0066879 -0.0235569 -0.0190217 -0.0223029 -0.00356557 -0.0323164 0.0121622
internal_weight=159250 95550 78600 63700 35580 43020 23540 16950 40160 22180 17980 13920 23265 12315 15526 21315 12975 11760 21705 6654 9620 11123 5190 2352 9408 6495 12390 9744 4403 8340 5196 4692 2400 1551 16440 10545 7180 5026 2154 1239 7110 4921 2510 5103 4548 6825 4716 10800 1770 6300 1704 8436 2429 2133 708 3444 3420 1830 7980 2430 9315 2109
internal_count=159250 95550 78600 63700 35580 43020 23540 16950 40160 22180 17980 13920 23265 12315 15526 21315 12975 11760 21705 6654 9620 11123 5190 2352 9408 6495 12390 9744 4403 8340 5196 4692 2400 1551 16440 10545 7180 5026 2154 1239 7110 4921 2510 5103 4548 6825 4716 10800 1770 6300 1704 8436 2429 2133 708 3444 3420 1830 7980 2430 9315 2109
cat_boundaries=0 1 2 4 6 8 9 10 11 13 15 16 18 19 21 23 24 25 26 27 29 31 32 33 34 36 38 39 41 43 45 46 48 50 51 52 54 56 57 58 60 61 62 63 64 65
cat_threshold=2051 4220 2346436 64 1083707395 398 519413 65 10128 38086369 4163 2801803808 291 54944288 113 24 545784320 12 1664 587203080 162 26656 1 2084 35 8856 38011424 1073793024 354 3223371776 32 640 656 260 805306880 264 1073741826 20 1 268437504 2 1098908160 46 1073741824 16 4456464 3288334352 306 65536 64 256 112 544 32 1073741824 6 81924 2048 8388608 270 99328 19460 67174656 1152 68
is_linear=0
shrinkage=0.05


Tree=7
num_leaves=63
num_cat=29
split_feature=1 5 0 7 5 7 7 5 7 7 5 7 1 5 5 0 5 0 1 0 0 7 7 7 0 0 0 0 5 0 0 0 7 7 0 0 5 0 0 0 7 1 7 0 5 0 1 0 5 1 0 7 0 7 7 0 7 1 1 7 0 0
split_gain=8692.59 4565.92 1992.38 1497.84 1055.12 987.351 631.46 428.017 381.253 366.317 344.731 270.174 245.593 201.712 192.74 184.027 182.631 143.452 133.289 179.086 132.686 125.305 118.428 104.742 111.102 135.585 102.214 184.864 102.124 98.6595 101.299 92.5411 83.4762 80.1956 76.2765 72.0895 65.4575 63.3103 60.702 114.295 59.3577 58.3862 57.967 56.5912 55.0861 52.2542 48.2129 111.841 48.1162 46.677 100.537 111.326 51.8583 44.6321 44.2557 43.5201 43.3904 40.9813 40.6534 40.5686 39.6837 39.4938
threshold=3.5000000000000004 0 14.500000000000002 1 2 3 4 5 6 7 8 9 2.5000000000000004 10 11 9.5000000000000018 12 21.500000000000004 4.5000000000000009 11.500000000000002 21.500000000000004 13 14 15 21.500000000000004 8.5000000000000018 12.500000000000002 11.500000000000002 16 21.500000000000004 8.5000000000000018 16.500000000000004 17 18 12.500000000000002 16.500000000000004 19 21.500000000000004 12.500000000000002 11.500000000000002 20 4.5000000000000009 21 8.5000000000000018 22 16.500000000000004 4.5000000000000009 11.500000000000002 23 4.5000000000000009 11.500000000000002 24 18.500000000000004 25 26 7.5000000000000009 27 4.5000000000000009 4.5000000000000009 28 12.500000000000002 18.500000000000004
decision_type=2 1 2 9 1 9 9 1 9 9 1 9 2 1 1 2 1 2 2 2 2 9 9 9 2 2 2 2 1 2 2 2 9 9 2 2 1 2 2 2 9 2 9 2 1 2 2 2 1 2 2 9 2 9 9 2 9 2 2 9 2 2
left_child=1 4 8 7 9 17 29 18 16 40 22 14 21 38 42 54 32 35 19 -2 31 37 -7 24 25 -11 27 57 -9 30 -6 -17 -3 43 -20 -4 -29 45 39 -13 -1 -28 -5 -10 -19 -12 47 -30 -23 50 -44 -52 -53 -22 -8 -34 -41 -16 -40 -37 -48 -21
right_child=3 2 5 11 6 10 15 28 33 23 12 13 -14 -15 26 20 -18 44 34 61 53 48 -24 -25 -26 -27 41 36 46 -31 -32 -33 55 -35 -36 59 -38 -39 58 56 -42 -43 49 -45 -46 -47 60 -49 -50 -51 51 52 -54 -55 -56 -57 -58 -59 -60 -61 -62 -63
leaf_value=0.2044810181008197 0.15947295487087665 0.0039384708829452112 -0.38965744410611836 0.68260654988658231 0.094926384596506 0.12834236733034921 -0.24813823405511251 0.63968412955958598 -0.52408957301695858 0.24699283424279025 -0.22039783248856892 0.61069267586119735 0.33594592938214113 1.1982405940205731 0.71944543701954733 -0.11432663442548457 -0.44175151455893291 -0.22824253372034314 -0.1452351124816218 -0.47766492500668145 0.0022163142448487607 0.072419092713997379 0.66913636683168287 0.83213077286682025 0.10001001920806551 0.61665861644419984 0.20046466247464176 0.18743858638760572 0.56585419561186401 -0.053203982432993513 0.57827071307293354 0.21767281333476074 -0.39999481538115234 -0.58598581107951164 0.14599229375183373 -0.32317001061988559 -0.32604994337202098 -0.32763815358063209 0.31846527147967835 0.39182323656691698 -0.064944129814129073 0.77527362595210636 1.1330538375816086 -0.42106636040061152 -0.49468900087507423 0.056679488043320347 0.1913492104757312 -0.10295617318067461 -0.12505440194391043 0.94043447656729739 0.79220871384963054 -0.2059248815512234 0.39151648238094056 -0.30652898937572104 -0.36854899521082135 -0.22063475694885248 -0.25418189043643252 0.3084794067785282 1.0944262962028668 -0.13537289544260567 0.50928925301827499 -0.24753377340227234
leaf_weight=2760 1201 1008 3418 4350 1665 2107 2004 2510 9040 2905 1972 2156 1848 7330 1321 3292 6344 576 3603 1201 417 2358 1582 3045 1743 4067 1321 470 902 999 2331 1646 2184 6488 4804 1320 851 2958 539 127 2430 5284 988 5424 4551 986 2706 1804 2814 6916 790 593 593 2052 2934 2184 412 3963 2156 2098 3608 1201
leaf_count=2760 1201 1008 3418 4350 1665 2107 2004 2510 9040 2905 1972 2156 1848 7330 1321 3292 6344 576 3603 1201 417 2358 1582 3045 1743 4067 1321 470 902 999 2331 1646 2184 6488 4804 1320 851 2958 539 127 2430 5284 988 5424 4551 986 2706 1804 2814 6916 790 593 593 2052 2934 2184 412 3963 2156 2098 3608 1201
internal_value=-0.000608477 -0.0101465 -0.0183222 0.0136986 0.00446356 -0.00868546 -0.00420749 0.00367728 -0.0267599 0.0133314 -0.000796513 0.0195668 -0.00464236 0.0256167 0.0167541 -0.0102752 -0.0194714 -0.0196317 -0.00292845 -0.010977 -0.00529904 -0.00745851 0.0126656 0.0182158 0.0153754 0.0182157 0.0123752 0.00798637 0.0105546 0.0107792 0.0143143 -0.000567031 -0.0126253 -0.0308129 0.000517426 -0.0149064 -0.00874338 -0.0124198 0.0181667 0.0128942 0.00225 0.0167827 0.0208076 -0.0286306 -0.0259704 -0.00726842 0.00805094 0.00247598 -0.00175608 0.0229727 0.0177463 0.0112348 0.0014214 -0.0147631 -0.0177602 -0.0156236 -0.00769944 0.0121688 0.0235065 -0.0097718 0.010453 -0.0188593
internal_weight=159250 95550 61260 63700 34290 28588 17340 23540 32672 16950 16625 40160 12936 12720 27440 12345 11720 11963 12010 3603 7407 11088 3689 11760 8715 6972 13210 6605 11530 4995 3996 4938 5376 20952 8407 6836 1321 5916 5390 2695 5190 6605 14230 14464 5127 2958 9020 2706 5172 9880 2964 1976 1186 2469 4938 4368 539 5284 2695 3418 6314 2402
internal_count=159250 95550 61260 63700 34290 28588 17340 23540 32672 16950 16625 40160 12936 12720 27440 12345 11720 11963 12010 3603 7407 11088 3689 11760 8715 6972 13210 6605 11530 4995 3996 4938 5376 20952 8407 6836 1321 5916 5390 2695 5190 6605 14230 14464 5127 2958 9020 2706 5172 9880 2964 1976 1186 2469 4938 4368 539 5284 2695 3418 6314 2402
cat_boundaries=0 1 3 4 6 8 9 11 12 13 15 16 17 18 20 22 24 25 27 29 30 31 33 34 35 37 38 40 42 44
cat_threshold=2147 2346436 64 2051 249028 80 1075445764 398 10000 1619010051 446 38086369 4096 2269388848 307 9612 4291 4252 2198085681 35 2202018304 290 3223373824 34 35 1073741827 4 2269665312 1 2108 38011424 2147483680 32 4096 1540 0 2 12615680 2164539392 32 1073741824 4 98304 64
is_linear=0
shrinkage=0.05


Tree=8
num_leaves=63
num_cat=33
split_feature=1 5 0 7 5 7 7 5 7 7 5 5 1 7 0 0 5 0 0 1 0 0 1 5 7 7 7 0 0 0 0 7 7 1 5 0 0 7 0 0 0 5 7 5 7 5 0 7 0 5 1 0 0 7 0 5 7 7 5 0 7 0
split_gain=7994.15 4210.48 1895.46 1392.15 966.017 893.573 584.323 393.119 380.728 337.714 316.778 258.535 218.984 191.837 187.664 325.416 170.662 167.768 148.506 135.517 199.246 129.231 119.971 115.012 114.226 111.531 97.3671 99.0294 131.636 93.947 94.7202 84.4012 81.1099 78.5202 73.5071 70.15 67.366 65.8954 61.2245 56.518 56.3934 55.5486 54.6626 51.6176 49.3496 49.1275 48.543 51.9936 46.3408 43.4501 41.3353 60.0076 41.0359 40.8987 40.3213 40.056 37.1711 36.9046 36.7725 36.5607 35.9616 35.4436
threshold=3.5000000000000004 0 14.500000000000002 1 2 3 4 5 6 7 8 9 2.5000000000000004 10 12.500000000000002 11.500000000000002 11 10.500000000000002 21.500000000000004 4.5000000000000009 11.500000000000002 21.500000000000004 4.5000000000000009 12 13 14 15 21.500000000000004 9.5000000000000018 21.500000000000004 15.500000000000002 16 17 4.5000000000000009 18 12.500000000000002 16.500000000000004 19 21.500000000000004 16.500000000000004 8.5000000000000018 20 21 22 23 24 20.500000000000004 25 16.500000000000004 26 4.5000000000000009 11.500000000000002 18.500000000000004 27 8.5000000000000018 28 29 30 31 7.5000000000000009 32 12.500000000000002
decision_type=2 1 2 9 1 9 9 1 9 9 1 1 2 9 2 2 1 2 2 2 2 2 2 1 9 9 9 2 2 2 2 9 9 2 1 2 2 9 2 2 2 1 9 1 9 1 2 9 2 1 2 2 2 9 2 1 9 9 1 2 9 2
left_child=1 4 8 7 9 21 29 19 16 42 25 13 24 50 15 33 41 44 39 20 -2 36 43 -17 38 -7 27 28 -11 30 -6 40 -24 -13 60 -21 -4 -15 48 -19 -10 -3 -1 -16 -8 -23 -39 -48 -12 -26 51 -5 -22 -20 -18 56 -35 -38 -53 -43 -9 -36
right_child=3 2 5 11 6 10 17 34 31 26 12 14 -14 37 22 23 54 18 53 35 52 45 32 -25 49 -27 -28 -29 -30 -31 -32 -33 -34 55 61 -37 57 46 -40 -41 -42 59 -44 -45 -46 -47 47 -49 -50 -51 -52 58 -54 -55 -56 -57 -58 -59 -60 -61 -62 -63
leaf_value=0.18708159981665562 0.18024915453944212 0.0042655264198874221 -0.37086179253384233 1.7900084905927309 0.19751648182443696 0.068092378716625573 -0.22194920285917413 0.37455320981232065 -0.49580943191071952 0.26707015225434161 -0.20877438360888265 0.90315353849197055 0.31914863291303402 0.69746822671501651 0.80539582587025338 0.42881096866555596 -0.45237311583839745 -0.062885420683994303 0.002105498532606376 -0.089866649946848662 -0.43109231377494572 -0.2128069212507569 1.2683960651737309 -0.26607231917400115 0.068798138078297377 0.58299310859499343 0.79052423422347928 0.095009518247662336 0.62546746724119151 -0.051043794755435815 0.7427552429836487 -0.55839632539152739 0.76659304984329446 0.24105539066323445 0.15595916771142593 0.15619279350516013 -0.30701151008889149 0.85529879056856761 -0.31022261082622404 0.20888204211078085 -0.40001304238058105 -0.36793132768528913 -0.0654819961269201 0.11935397836976912 -0.33891133993663197 -0.4708256095050537 0.095464552415883835 1.5241037653148402 0.057845509826456976 -0.11880168184671476 1.471639881259388 -0.083768890074436442 -0.20850272965003516 -0.28927931165541027 -0.34548829117786006 0.28974225000976833 0.68373789986449085 -0.12659809544283593 0.79567266027111971 -0.16397019805849916 0.89013143392292438 0.42804000572223838
leaf_weight=2940 1392 920 3432 352 2988 1680 2618 1310 9020 3486 1960 2140 1842 7440 439 439 4445 2472 417 4176 1392 579 2456 1701 2358 2002 3045 1743 3486 996 996 6584 6104 789 3555 5568 1320 7020 2940 1648 5412 1812 2250 1701 3150 4569 561 219 980 2814 2464 194 1392 2055 2667 3621 2010 2112 510 1812 1200 3555
leaf_count=2940 1392 920 3432 352 2988 1680 2618 1310 9020 3486 1960 2140 1842 7440 439 439 4445 2472 417 4176 1392 579 2456 1701 2358 2002 3045 1743 3486 996 996 6584 6104 789 3555 5568 1320 7020 2940 1648 5412 1812 2250 1701 3150 4569 561 219 980 2814 2464 194 1392 2055 2667 3621 2010 2112 510 1812 1200 3555
internal_value=-0.000632339 -0.00977917 -0.0176302 0.0130879 0.00425073 -0.00823073 -0.00404611 0.00342675 -0.0258601 0.0127358 -0.000699385 0.0187453 -0.00439399 0.0230474 0.014965 0.0102897 -0.0185496 -0.00987065 -0.00442961 -0.00194544 -0.00948276 -0.0186076 0.0196542 -0.00714953 -0.00705755 0.0122156 0.0174257 0.0146877 0.0173695 0.0104008 0.0138554 -0.0298916 0.0223014 0.0146495 0.0111942 0.00128284 -0.0141317 0.020577 -0.0118166 0.0013835 -0.0276485 -0.0109135 0.00209615 0.00906542 -0.0161061 -0.0246115 0.023854 0.0120513 -0.00673469 -0.001621 0.0336544 0.0254735 -0.0172055 -0.0141181 -0.0234063 0.0118847 0.0163937 -0.00917832 0.0170455 -0.0137039 0.0185714 0.00856742
internal_weight=159250 95550 61260 63700 34290 28588 17340 23540 32672 16950 16576 40160 12894 18760 21400 10700 11656 12360 6592 13920 4176 12012 10700 2140 11052 3682 11760 8715 6972 4980 3984 21016 8560 8560 9620 9744 6864 15240 5880 4120 14432 4544 5190 2140 5768 5148 7800 780 2940 5172 3520 1056 2784 2472 7112 6420 2799 3432 704 3624 2510 7110
internal_count=159250 95550 61260 63700 34290 28588 17340 23540 32672 16950 16576 40160 12894 18760 21400 10700 11656 12360 6592 13920 4176 12012 10700 2140 11052 3682 11760 8715 6972 4980 3984 21016 8560 8560 9620 9744 6864 15240 5880 4120 14432 4544 5190 2140 5768 5148 7800 780 2940 5172 3520 1056 2784 2472 7112 6420 2799 3432 704 3624 2510 7110
cat_boundaries=0 1 3 4 6 8 9 11 12 13 14 16 17 18 20 22 24 26 28 29 31 32 33 34 36 37 39 40 41 42 44 46 47 49
cat_threshold=2147 2346436 64 2051 249060 80 1075445760 398 10128 1619001859 446 38086369 4096 4195 277348353 12 4124 2052 2198085649 35 2168463872 290 3223373824 34 2202564640 1 545268224 12 35 2197824032 305 4 38012448 2052 2164539392 33 4096 1073741824 2 1540 12615680 8856 2164260912 292 98304 64 64 65536 64
is_linear=0
shrinkage=0.05


Tree=9
num_leaves=63
num_cat=33
split_feature=1 5 0 7 5 7 7 7 5 7 5 7 1 5 5 5 0 0 0 1 0 7 7 7 0 0 0 0 5 7 0 0 0 0 0 5 0 7 5 7 0 0 0 1 5 7 7 1 0 7 0 0 7 1 0 7 5 5 5 7 0 7
split_gain=7355.11 3867.32 1769.29 1270.4 898.086 819.698 532.556 369.427 358.764 312.286 294.55 248.129 202.449 185.744 183.012 160.031 153.4 133.718 121.014 113.996 148.945 107.595 105.566 93.9614 97.2436 122.349 90.7263 148.95 86.2681 86.1097 83.2883 99.9045 63.7215 62.9475 58.1087 55.8104 54.6188 54.2737 50.167 47.8759 47.6074 74.3754 47.5924 47.5409 46.5453 45.8975 44.204 42.9074 96.1538 110.63 45.6034 42.5007 41.7583 41.3304 101.183 38.7705 38.5766 37.7426 36.8365 36.0056 36.8419 35.4252
threshold=3.5000000000000004 0 14.500000000000002 1 2 3 4 5 6 7 8 9 2.5000000000000004 10 11 12 10.500000000000002 21.500000000000004 21.500000000000004 4.5000000000000009 11.500000000000002 13 14 15 21.500000000000004 9.5000000000000018 12.500000000000002 11.500000000000002 16 17 21.500000000000004 8.5000000000000018 16.500000000000004 12.500000000000002 21.500000000000004 18 8.5000000000000018 19 20 21 12.500000000000002 11.500000000000002 16.500000000000004 4.5000000000000009 22 23 24 4.5000000000000009 11.500000000000002 25 18.500000000000004 16.500000000000004 26 4.5000000000000009 11.500000000000002 27 28 29 30 31 7.5000000000000009 32
decision_type=2 1 2 9 1 9 9 9 1 9 1 9 2 1 1 1 2 2 2 2 2 9 9 9 2 2 2 2 1 9 2 2 2 2 2 1 2 9 1 9 2 2 2 2 1 9 9 2 2 9 2 2 9 2 2 9 1 1 1 9 2 9
left_child=1 4 7 8 9 18 30 15 19 39 21 14 22 37 40 38 45 42 32 20 -2 -7 58 24 25 -11 27 57 -10 36 31 -6 -4 -21 51 -29 -9 -13 -3 -1 41 -5 -18 -28 -20 -8 -17 48 -39 -50 -51 -24 -43 54 -30 -19 -36 -15 -12 -40 -61 -49
right_child=3 2 5 11 6 10 16 29 28 23 12 13 -14 26 -16 46 17 55 44 33 -22 -23 34 -25 -26 -27 43 35 53 -31 -32 -33 -34 -35 56 -37 -38 47 59 -41 -42 52 -44 -45 -46 -47 -48 61 49 50 -52 -53 -54 -55 -56 -57 -58 -59 -60 60 -62 -63
leaf_value=0.18881699331176929 0.1424868494003608 0.0040522500988931396 -0.35163148227412011 0.51371668627259626 0.080304241275458932 0.1203420090173168 -0.20246239799941057 -0.4713337612709449 0.57875637018197157 0.25371664464162452 0.068390785025413167 0.61332614291298748 0.3031912012673823 0.22989816181490674 1.0836832452304872 -0.15328425719019645 -0.060325463393217052 0.18957847308762191 -0.20619006097178813 -0.13348002436019826 -0.33373186814101424 0.64138927814048619 -0.19786404828658846 0.75099802251230519 0.090259042335279108 0.5934441243967099 0.17852778075331843 0.16185233239015667 0.52976352744569977 -0.53041496118353337 -0.047991593573572189 0.52848162735629423 -0.20024911232107601 0.13088303938898402 -0.42910342765715159 -0.2971063048769832 -0.37985229091794787 1.048341454126398 0.081027295087944401 -0.058479456397767575 0.78459332669103932 0.43868846386668497 0.19634507056248385 0.69822549215341234 -0.44641327035606759 -0.3200785994891906 -0.4152850491924312 0.75260910157477567 0.71341877032534384 -0.23411203937970218 0.33984068225209474 0.054953234335134132 -0.24145317617127626 0.33682857325299803 -0.10461485118289726 -0.27049238386007701 -0.24559438514083887 0.47555766239407016 -0.11161339632709844 -0.36312807904365951 -0.1648868812234511 1.1021779239486911
leaf_weight=2790 1201 920 3418 1952 1665 2226 2338 8975 2510 3474 2286 4550 1848 2684 7740 656 2469 216 576 3603 2402 1463 2024 3045 1737 3474 1324 470 902 6640 999 2331 3418 4804 861 854 5385 975 192 2430 2440 122 1646 5296 4551 3423 6464 4424 790 580 580 1012 366 6314 1804 2253 2175 2612 2730 1720 1720 2401
leaf_count=2790 1201 920 3418 1952 1665 2226 2338 8975 2510 3474 2286 4550 1848 2684 7740 656 2469 216 576 3603 2402 1463 2024 3045 1737 3474 1324 470 902 6640 999 2331 3418 4804 861 854 5385 975 192 2430 2440 122 1646 5296 4551 3423 6464 4424 790 580 580 1012 366 6314 1804 2253 2175 2612 2730 1720 1720 2401
internal_value=-0.000695761 -0.00946939 -0.0169936 0.0124647 0.00397668 -0.00791241 -0.00402305 -0.0249449 0.00323567 0.012158 -0.000724376 0.0178691 -0.00427931 0.0151906 0.0236975 -0.0177538 -0.00959531 -0.00438943 -0.0178861 -0.00281198 -0.0102553 0.0117194 -0.00683622 0.0166865 0.0139908 0.0166523 0.0108981 0.00676737 0.00953206 -0.0289196 0.00974026 0.012988 -0.0135459 0.000374688 -0.0112627 -0.00823263 -0.0266458 0.0191544 -0.0103683 0.00196941 0.0160123 0.0111066 0.00113001 0.0150453 -0.0237078 -0.0155615 -0.0224544 0.0213012 0.0162564 0.00984615 -8.54701e-05 -0.00638999 -0.00635246 0.00723145 0.00206948 -0.0135885 -0.0161726 0.0105174 -0.00145245 -0.0130148 -0.0142029 0.0234945
internal_weight=159250 95550 61260 63700 34290 28588 17340 32672 23540 16950 16625 40160 12936 27540 12620 11672 12345 6584 11963 12010 3603 3689 11088 11730 8685 6948 13240 6620 11530 21000 4995 3996 6836 8407 6072 1324 14360 14300 4552 5220 4880 2440 4115 6620 5127 5761 7120 9750 2925 1950 1160 3036 488 9020 2706 2469 3036 5296 5016 3632 3440 6825
internal_count=159250 95550 61260 63700 34290 28588 17340 32672 23540 16950 16625 40160 12936 27540 12620 11672 12345 6584 11963 12010 3603 3689 11088 11730 8685 6948 13240 6620 11530 21000 4995 3996 6836 8407 6072 1324 14360 14300 4552 5220 4880 2440 4115 6620 5127 5761 7120 9750 2925 1950 1160 3036 488 9020 2706 2469 3036 5296 5016 3632 3440 6825
cat_boundaries=0 1 3 4 6 8 10 11 12 13 15 16 17 18 20 22 24 25 27 28 30 31 32 33 35 37 39 41 42 43 44 45 47 49
cat_threshold=2147 2346436 64 2051 249028 80 1075445764 398 1619005955 446 10000 40183521 4096 1889010179 12 4291 1420 4124 2202018304 291 1623196160 12 3221276672 34 35 2202560512 1 2108 2147483680 288 4 40108576 4096 2164539392 32 1073741824 276 0 2 1073741824 4 4194304 276 3328 1540 1 4 33562640 18
is_linear=0
shrinkage=0.05


Tree=10
num_leaves=63
num_cat=30
split_feature=1 7 7 0 0 7 0 0 7 0 0 7 7 0 0 1 0 7 7 0 0 7 7 7 7 0 1 1 7 7 1 0 7 1 7 0 0 0 7 0 7 0 7 0 7 6 0 0 7 7 0 0 7 6 7 7 0 0 7 0 7 7
split_gain=6799.92 1920.35 1181.71 1010.55 670.783 483.515 334.99 361.747 253.982 218.844 200.372 192.054 156.662 125.692 298.105 123.484 201.255 110.163 86.7852 76.3519 153.326 76.4126 74.0629 73.1491 71.5228 68.6572 66.5615 62.0378 58.1664 56.5961 52.7031 51.3052 45.6052 43.6461 58.4004 71.8503 43.3155 39.4421 34.3622 31.562 29.9918 29.9442 29.2899 29.2764 28.3371 26.8872 26.0984 24.8454 23.1273 23.105 22.2289 20.3218 18.3344 16.5754 16.5705 16.1772 16.1388 15.4469 14.9729 14.7582 14.6736 13.7958
threshold=3.5000000000000004 0 1 10.500000000000002 10.500000000000002 2 21.500000000000004 16.500000000000004 3 21.500000000000004 16.500000000000004 4 5 12.500000000000002 11.500000000000002 4.5000000000000009 11.500000000000002 6 7 12.500000000000002 11.500000000000002 8 9 10 11 12.500000000000002 4.5000000000000009 5.5000000000000009 12 13 5.5000000000000009 7.5000000000000009 14 4.5000000000000009 15 20.500000000000004 20.500000000000004 2.5000000000000004 16 18.500000000000004 17 15.500000000000002 18 8.5000000000000018 19 20 20.500000000000004 15.500000000000002 21 22 13.500000000000002 18.500000000000004 23 24 25 26 5.5000000000000009 22.500000000000004 27 8.5000000000000018 28 29
decision_type=2 9 9 2 2 9 2 2 9 2 2 9 9 2 2 2 2 9 9 2 2 9 9 9 9 2 2 2 9 9 2 2 9 2 9 2 2 2 9 2 9 2 9 2 9 9 2 2 9 9 2 2 9 9 9 9 2 2 9 2 9 9
left_child=1 4 15 5 18 31 7 11 19 10 24 47 54 14 27 16 -2 49 58 20 30 -22 -12 -16 -6 -17 40 56 -9 51 -4 44 -28 45 35 50 -34 -7 -32 -31 -15 -26 -29 -20 -3 -21 -27 -5 -30 -11 -35 -18 -38 -13 -8 -14 -10 -56 -1 -39 -33 -25
right_child=2 3 8 6 9 37 12 28 13 17 22 53 55 26 23 25 29 -19 43 33 21 -23 -24 61 41 46 32 42 48 39 38 60 36 34 -36 -37 52 59 -40 -41 -42 -43 -44 -45 -46 -47 -48 -49 -50 -51 -52 -53 -54 -55 57 -57 -58 -59 -60 -61 -62 -63
leaf_value=-0.44290751667601819 0.29350935625719593 -0.27754099775801944 1.1024239579614858 -0.089546816519136749 -0.3319964280351162 -0.11896211832210427 -0.062522768193533196 0.37219237435919617 0.80779499763900664 -0.32739950739912022 -0.18072298432165468 0.22112157694733378 0.13043336219153795 0.68694499341443493 0.33466034458831262 0.02812207541571432 -0.41870155169540801 -0.20189985508144678 -0.38744746752671128 0.46258427321442286 0.56799695149971707 -0.11170382151304388 0.097164941845339581 -0.043354467546694232 -0.22595476836172745 0.312690819968654 1.0319873578979748 0.21664789212656663 0.71589208954091443 -0.19521133010415248 0.18959075158997385 -0.22002939430175417 0.77159765514598355 1.5353393815666452 1.3003742841717967 -0.17181275469733637 0.28772864268133952 0.0040483395084891073 0.66077052679850545 0.024568550835411429 0.24615475253545577 -0.093049971102918863 0.4454103452030298 -0.31544757784896849 -0.35232616833848651 0.81093527859960768 0.10604671028788069 0.038691884807820466 0.59242759084711705 -0.4089636807707866 0.61319417701959766 -0.23298676674867169 0.8478888482225746 0.39099260053976281 -0.21909207493004992 0.41716941422748505 0.55805846014785387 -0.12775383730223666 -0.51451393094766651 0.1107598200946221 -0.26649646444222236 -0.21378836031489679
leaf_weight=5999 2168 2928 2526 4088 3303 2290 1905 2684 2939 3375 2014 2691 2631 632 632 6504 926 3270 10515 751 422 841 4276 710 4088 6504 2780 2304 974 1242 530 4293 6732 265 3992 265 1502 3435 1996 1242 2307 2044 3574 4206 5392 512 2168 2044 2792 2790 530 926 742 852 1591 366 2939 3182 1295 2290 1947 1597
leaf_count=5999 2168 2928 2526 4088 3303 2290 1905 2684 2939 3375 2014 2691 2631 632 632 6504 926 3270 10515 751 422 841 4276 710 4088 6504 2780 2304 974 1242 530 4293 6732 265 3992 265 1502 3435 1996 1242 2307 2044 3574 4206 5392 512 2168 2044 2792 2790 530 926 742 852 1591 366 2939 3182 1295 2290 1947 1597
internal_value=-0.000756044 -0.00919205 0.011898 -0.00218973 -0.0163685 -0.00991584 0.00456977 0.00898295 0.016788 -0.0107949 -0.00718283 0.00286822 -0.00278553 0.0142245 0.0109595 0.00241125 -0.00335178 -0.0168151 -0.0227459 0.0227373 0.0188678 0.00328583 -0.00027027 -0.00328343 -0.0117912 0.00488271 0.0174991 0.0145202 0.018155 -0.00957103 0.0227633 -0.0153397 0.0191817 0.0266429 0.0287213 0.0176636 0.0173603 -4.36137e-05 0.0176564 -0.00457097 0.010769 -0.0085477 0.0108881 -0.0204636 -0.0179207 0.0183294 0.0077952 -0.00249105 0.0221928 -0.020753 0.0253459 -0.0161654 0.0113636 0.0121165 -0.00704246 0.00670103 0.0181524 -0.00862429 -0.0272864 0.00217467 -0.0119231 -0.00740181
internal_weight=159250 95550 63700 48375 47175 22575 25800 16125 42020 25160 15725 9675 9675 29390 14695 21680 6504 9435 22015 12630 6315 1263 6290 2939 9435 15176 14695 11756 6450 4336 5052 14560 11756 6315 5052 1060 8976 8015 2526 2484 2939 6132 5878 14721 8320 1263 8672 6132 3766 6165 795 1852 2244 3543 6678 2997 5878 4773 7294 5725 6240 2307
internal_count=159250 95550 63700 48375 47175 22575 25800 16125 42020 25160 15725 9675 9675 29390 14695 21680 6504 9435 22015 12630 6315 1263 6290 2939 9435 15176 14695 11756 6450 4336 5052 14560 11756 6315 5052 1060 8976 8015 2526 2484 2939 6132 5878 14721 8320 1263 8672 6132 3766 6165 795 1852 2244 3543 6678 2997 5878 4773 7294 5725 6240 2307
cat_boundaries=0 2 4 6 8 10 12 13 14 16 17 19 20 22 23 25 26 27 29 31 33 34 36 37 39 40 42 44 45 47 49
cat_threshold=50458620 65 116164 64 2163085312 40 1889010187 12 2227568641 160 3225550848 306 115780 98516 1073741824 4 98432 0 2 99540 2219180032 160 98308 71311408 1 1073741824 1073741824 0 2 2164394032 304 2097152 40 34 1073741825 12 17408 2048 306 144 2151677952 272 8650752 4 65536 8912896 40 0 304
is_linear=0
shrinkage=0.05


Tree=11
num_leaves=63
num_cat=29
split_feature=1 7 7 0 0 7 0 0 7 0 7 0 7 1 0 0 0 7 7 7 0 0 7 0 7 7 1 7 1 1 0 1 7 0 7 0 7 0 0 7 0 0 7 7 7 6 0 0 0 7 7 7 0 0 7 7 0 7 0 0 7 7
split_gain=6232.23 1757.88 1089.14 948.878 600.244 458.109 315.614 346.778 218.309 199.66 187.209 162.72 145.421 121.379 195.073 107.516 248.993 95.4343 79.9078 77.2561 72.3218 136.899 71.62 68.8836 66.0631 59.0672 56.0291 55.8111 54.4164 51.6438 45.2958 44.4383 51.1565 67.1208 37.0606 46.202 36.1353 35.6824 35.6123 31.9323 27.5624 26.8844 25.3577 24.9939 24.9019 24.2282 23.5665 23.5294 21.7585 21.6367 21.3041 18.3276 17.8855 17.685 15.616 15.4044 14.7591 14.3464 13.7408 13.5644 12.8092 12.7632
threshold=3.5000000000000004 0 1 10.500000000000002 10.500000000000002 2 21.500000000000004 16.500000000000004 3 21.500000000000004 4 15.500000000000002 5 4.5000000000000009 11.500000000000002 12.500000000000002 11.500000000000002 6 7 8 12.500000000000002 11.500000000000002 9 12.500000000000002 10 11 4.5000000000000009 12 4.5000000000000009 5.5000000000000009 7.5000000000000009 4.5000000000000009 13 20.500000000000004 14 20.500000000000004 15 18.500000000000004 2.5000000000000004 16 15.500000000000002 16.500000000000004 17 18 19 20 20.500000000000004 8.5000000000000018 13.500000000000002 21 22 23 18.500000000000004 15.500000000000002 24 25 22.500000000000004 26 13.500000000000002 8.5000000000000018 27 28
decision_type=2 9 9 2 2 9 2 2 9 2 9 2 9 2 2 2 2 9 9 9 2 2 9 2 9 9 2 9 2 2 2 2 9 2 9 2 9 2 2 9 2 2 9 9 9 9 2 2 2 9 9 9 2 2 9 9 2 9 2 2 9 9
left_child=1 4 13 5 19 38 7 10 20 11 40 36 55 14 -2 16 28 -11 -13 54 21 29 -23 60 -18 52 43 -9 -10 -4 42 45 33 48 35 58 -6 -27 -3 -31 -5 -20 -7 -17 -19 -22 -25 -21 -33 -29 -30 -14 -16 -12 -1 -8 -57 -32 -28 -40 -15 -26
right_child=2 3 8 6 9 30 12 27 15 17 53 18 51 23 25 26 24 44 41 47 31 22 -24 46 61 37 34 49 50 39 57 32 -34 -35 -36 -37 -38 -39 59 -41 -42 -43 -44 -45 -46 -47 -48 -49 -50 -51 -52 -53 -54 -55 -56 56 -58 -59 -60 -61 -62 -63
leaf_value=-0.42076214084221741 0.30018685601201406 -0.11301401240599916 1.0482860475088371 -0.092297766211551044 -0.34753331897609296 -0.2636639478701186 -0.059396629783856625 0.34584611828896983 0.77832251869148639 -0.18755563663009447 0.19502918469870512 -0.21049777046990564 0.12407913976225551 0.21886343674857633 -0.3977664741106377 0.65259774374371315 0.31792732735889689 -0.31193383398962315 -0.09408046026252706 -0.37848989292119911 0.43945505955370162 0.53959710392473126 -0.10611863043739156 0.31266880960003329 -0.041186744169359635 -0.19140121515420816 0.90406595753601349 0.65467885332960973 0.4663255600789693 0.18011121401047508 -0.24281169120591298 1.458572412488313 1.2411555140663377 -0.1632221169624696 0.87521189361149876 0.31305562002804399 -0.21945359818807547 0.034401323208578208 0.003845922533064794 0.63042694914612696 0.035603650274873999 0.080837634680660034 -0.32482369407852119 0.23524266508331471 -0.39159246463980218 0.76509258053838891 0.12839092533670424 -0.31490011690089337 0.58253446816861754 0.56939741828497004 0.3286582236291537 0.41428677322916629 -0.22133742841123799 0.35056156934513294 -0.48878823440028329 -0.2156585016131114 -0.1236161492518221 -0.20909201049241483 0.65342404538537735 0.10522182908989103 0.019511305114791357 -0.19885817108482318
leaf_weight=5999 2343 2286 2538 4412 2052 2928 1905 3010 2758 2721 2362 3033 2694 744 926 632 632 3603 1972 9705 751 422 847 7029 710 1417 1520 844 5142 530 2418 265 4016 265 4952 1520 3914 1417 3429 2008 2206 3944 6048 2126 2625 518 2343 3882 530 2920 3132 303 926 1181 1295 1753 3506 4314 3040 2286 6285 1416
leaf_count=5999 2343 2286 2538 4412 2052 2928 1905 3010 2758 2721 2362 3033 2694 744 926 632 632 3603 1972 9705 751 422 847 7029 710 1417 1520 844 5142 530 2418 265 4016 265 4952 1520 3914 1417 3429 2008 2206 3944 6048 2126 2625 518 2343 3882 530 2920 3132 303 926 1181 1295 1753 3506 4314 3040 2286 6285 1416
internal_value=-0.000751648 -0.00882784 0.0113626 -0.00246089 -0.016053 -0.00976633 0.00393047 0.00811042 0.0163481 -0.0106395 0.00226848 -0.00709688 -0.00303612 0.00278584 -0.0027102 0.0138347 0.0107179 -0.0165437 -0.00283272 -0.0222475 0.0217953 0.0180378 0.00334909 0.00514298 -0.00271936 -0.00860009 0.0169616 0.0168733 0.0140772 0.02171 -0.014722 0.0255871 0.0276793 0.0172897 0.0185551 0.0158128 -0.0134931 -0.00400844 -1.87243e-05 0.0166667 -0.00270066 0.000556868 -0.0170566 0.0105874 -0.0199583 0.0172183 0.00794921 -0.0199419 0.024717 0.0209592 0.0120498 0.00620219 -0.0155209 0.0115255 -0.0264786 -0.00689992 -0.00830328 -0.011631 0.0183553 0.00209099 0.00140134 -0.00692884
internal_weight=159250 95550 63700 50805 44745 23709 27096 16935 40270 23864 10161 14915 10161 23430 7029 27580 13790 8949 8949 20881 12690 6345 1269 16401 2758 4686 13790 6774 11032 5076 15708 6345 5076 1060 11032 6080 5966 2834 8001 2538 6618 5916 8976 2758 6228 1269 9372 13587 795 3764 8274 2997 1852 3543 7294 7164 5259 6732 4560 5715 7029 2126
internal_count=159250 95550 63700 50805 44745 23709 27096 16935 40270 23864 10161 14915 10161 23430 7029 27580 13790 8949 8949 20881 12690 6345 1269 16401 2758 4686 13790 6774 11032 5076 15708 6345 5076 1060 11032 6080 5966 2834 8001 2538 6618 5916 8976 2758 6228 1269 9372 13587 795 3764 8274 2997 1852 3543 7294 7164 5259 6732 4560 5715 7029 2126
cat_boundaries=0 2 4 6 8 10 12 13 14 15 17 19 20 22 23 25 26 27 29 31 33 34 36 38 40 41 43 45 47 49
cat_threshold=50458620 64 2215396 64 1946157059 406 1889010187 140 2227568641 161 3225550848 307 50342576 98496 98516 1073741824 4 0 2 98308 2219180033 33 1073741824 2147876864 306 98448 1073741824 2097152 40 0 2 50176 64 34 1073741824 4 37748736 3 75759616 4 65536 2151677952 272 2152071168 1 34820 64 0 304
is_linear=0
shrinkage=0.05


Tree=12
num_leaves=63
num_cat=28
split_feature=1 7 7 0 0 7 0 0 7 0 7 0 7 0 0 1 0 7 7 7 0 0 7 7 1 0 7 1 7 1 1 7 0 7 0 0 7 0 7 0 0 7 7 7 6 0 0 0 0 7 7 0 7 0 7 7 7 0 7 0 0 1
split_gain=5720.19 1623.59 1008.72 856.289 568.302 422.201 283.06 313.722 219.277 177.007 168.53 150.507 129.704 105.95 237.203 104.397 166.329 87.1944 75.6512 72.7969 69.8712 125.583 67.3677 63.9467 59.8119 57.1063 53.6519 50.4008 48.2459 47.9835 43.2403 47.9751 63.1145 41.3437 41.2247 38.2383 34.7125 32.8125 30.0211 28.9976 27.5582 26.7257 25.9766 25.6021 22.9329 22.4656 22.2819 20.9564 20.8327 20.762 20.1823 18.6803 18.11 17.5104 14.784 14.1797 13.8206 13.2987 12.8121 12.7147 12.3415 11.9751
threshold=3.5000000000000004 0 1 10.500000000000002 10.500000000000002 2 21.500000000000004 16.500000000000004 3 21.500000000000004 4 15.500000000000002 5 12.500000000000002 11.500000000000002 4.5000000000000009 11.500000000000002 6 7 8 12.500000000000002 11.500000000000002 9 10 4.5000000000000009 12.500000000000002 11 5.5000000000000009 12 4.5000000000000009 4.5000000000000009 13 20.500000000000004 14 7.5000000000000009 20.500000000000004 15 1.5000000000000002 16 18.500000000000004 15.500000000000002 17 18 19 20 16.500000000000004 20.500000000000004 8.5000000000000018 13.500000000000002 21 22 18.500000000000004 23 8.5000000000000018 24 25 26 22.500000000000004 27 13.500000000000002 2.5000000000000004 5.5000000000000009
decision_type=2 9 9 2 2 9 2 2 9 2 9 2 9 2 2 2 2 9 9 9 2 2 9 9 2 2 9 2 9 2 2 9 2 9 2 2 9 2 9 2 2 9 9 9 9 2 2 2 2 9 9 2 9 2 9 9 9 2 9 2 2 2
left_child=1 4 15 5 18 34 7 10 20 11 55 36 56 14 29 16 -2 -11 47 -13 21 27 -23 -16 41 -17 -9 -4 51 -10 44 32 48 35 42 59 -6 -7 -29 -30 -12 -15 -3 -19 -22 -21 -27 -1 -32 -31 -28 -18 60 -39 -36 -5 -8 -58 -14 -26 -20 -51
right_child=2 3 8 6 9 37 12 26 13 17 40 19 58 24 23 25 28 43 52 45 30 22 -24 -25 33 46 50 38 39 49 31 -33 -34 -35 54 -37 -38 53 -40 -41 -42 -43 -44 -45 -46 -47 -48 -49 -50 61 -52 -53 -54 -55 -56 -57 57 -59 -60 -61 -62 -63
leaf_value=-0.35559110056632798 0.26769494670190391 -0.244930699935475 0.99965246272846819 0.35874184056399339 -0.33015665302728847 -0.14744322184117725 -0.056426798294663884 0.32651849085249512 0.72848912182248182 -0.17817785479858977 -0.082304708629866677 -0.19754841822072111 0.11787518277414258 0.61996785655652753 0.30203096099095217 0.024013155086203143 -0.37787815040510575 -0.29633714229014213 -0.42746174374054519 -0.08971339661913974 0.41748230657601654 0.51261724872849457 -0.0992118372568946 -0.15983988585221098 0.81877344230808191 0.28252876314172187 0.64565905931945644 0.17110565330995142 -0.17733114676710324 0.44300928207502077 1.3856437918638971 1.1816039371105098 -0.15506101111434598 0.82828022647491528 -0.19899439981461919 0.32792081206191565 -0.20848091827867174 -0.0090330931586315444 0.60060573387963512 0.027506174343378122 0.038091019558571304 0.21838313925131239 -0.31920324118040605 -0.37201284140781221 0.72750790206703619 0.07658389575586054 0.097357329678897389 -0.2980833035359014 0.55340774476018673 0.4530017032310536 0.53424832624482799 -0.21027055699067604 -0.47274242748210721 0.099783728668792551 -0.23070056606872813 0.20725765230172064 -0.20487557653245575 -0.11743534178923093 0.39357243456770807 0.61790265901150121 -0.38399744357681914 0.20609299120871222
leaf_weight=9145 2183 3576 2540 927 2052 1152 1905 2958 2917 2721 4560 3069 2694 632 632 6549 926 3603 1934 1960 751 422 848 2285 1680 6549 960 530 1257 5142 265 4020 265 4948 4272 1680 3914 4608 2010 1257 2280 2285 5364 2625 519 3920 2183 3658 530 1203 2856 926 1309 2304 2433 2394 1753 3506 303 3360 4835 2406
leaf_count=9145 2183 3576 2540 927 2052 1152 1905 2958 2917 2721 4560 3069 2694 632 632 6549 926 3603 1934 1960 751 422 848 2285 1680 6549 960 530 1257 5142 265 4020 265 4948 4272 1680 3914 4608 2010 1257 2280 2285 5364 2625 519 3920 2183 3658 530 1203 2856 926 1309 2304 2433 2394 1753 3506 303 3360 4835 2406
internal_value=-0.000744113 -0.00848142 0.0108619 -0.00236249 -0.0154251 -0.00930237 0.00370903 0.00766755 0.0154035 -0.0101576 0.00211101 -0.00682199 -0.0028885 0.0130021 0.00999314 0.00214286 -0.00313788 -0.0157168 -0.0214525 -0.00272097 0.0209048 0.0172126 0.00314961 -0.00275968 0.0160199 0.00440743 0.0160024 0.0207283 -0.00877233 0.0131814 0.0246299 0.0266929 0.0166355 0.0176208 -0.0140882 0.0149629 -0.0129735 0 0.015748 -0.00419968 -0.00237956 0.00961604 -0.0163199 -0.0189804 0.016378 0.000543294 0.00705451 -0.0189846 0.0238365 0.0113301 0.0199425 -0.0148765 -0.0253091 0.00130208 -0.0111335 0.0113329 -0.0065375 -0.00786677 0.00583638 0.0171627 -0.0240965 0.00833103
internal_weight=159250 95550 63700 50805 44745 23709 27096 16935 41870 23864 10161 14915 10161 29170 14585 21830 6549 8949 20881 8949 12700 6350 1270 2917 14585 15281 6774 5080 4366 11668 6350 5080 1060 11668 15645 6720 5966 8064 2540 2514 6840 2917 8940 6228 1270 5880 8732 12803 795 8751 3816 1852 8078 6912 6705 3321 7164 5259 2997 5040 6769 3609
internal_count=159250 95550 63700 50805 44745 23709 27096 16935 41870 23864 10161 14915 10161 29170 14585 21830 6549 8949 20881 8949 12700 6350 1270 2917 14585 15281 6774 5080 4366 11668 6350 5080 1060 11668 15645 6720 5966 8064 2540 2514 6840 2917 8940 6228 1270 5880 8732 12803 795 8751 3816 1852 8078 6912 6705 3321 7164 5259 2997 5040 6769 3609
cat_boundaries=0 2 4 6 8 10 12 13 15 16 18 20 22 23 24 26 27 28 30 32 34 35 37 39 40 42 44 46 48
cat_threshold=50458620 64 2213348 64 2162561024 41 1889014275 140 1879048192 278 3225550848 307 50342576 33582592 64 98500 1073741824 4 0 2 2218917888 161 98308 1073741824 2147878912 306 98448 1073741824 0 2 2097152 41 50176 64 34 37748736 3 1073741824 12 16842784 8388608 40 1610612736 272 2151677952 272 75759616 4
is_linear=0
shrinkage=0.05


Tree=13
num_leaves=63
num_cat=33
split_feature=1 5 0 6 5 6 5 5 5 6 6 1 5 0 0 5 0 0 1 0 0 1 0 0 5 0 0 5 0 5 5 6 5 5 5 6 0 5 0 5 6 1 1 5 0 6 0 0 0 6 0 5 6 5 5 0 1 6 0 5 0 6
split_gain=5209.4 3514.85 1366.98 885.655 773.796 533.588 308.806 294.49 279.021 178.049 157.809 139.48 134.844 117.027 198.954 98.8623 98.7868 149.73 96.1164 128.407 93.7041 93.5859 85.405 82.3613 74.7717 67.6275 109.067 67.4498 61.1267 54.3959 54.3914 54.2274 53.2345 50.0185 49.1461 48.0526 47.0158 43.7552 43.4468 41.8484 41.8112 37.0415 85.144 92.8454 162.502 77.3334 62.3636 36.5814 63.4237 43.1627 36.4323 33.2639 31.5005 30.9146 29.6467 28.8758 28.3615 28.2504 28.229 27.8805 26.3827 25.9652
threshold=3.5000000000000004 0 14.500000000000002 1 2 3 4 5 6 7 8 2.5000000000000004 9 12.500000000000002 11.500000000000002 10 21.500000000000004 15.500000000000002 4.5000000000000009 11.500000000000002 21.500000000000004 4.5000000000000009 10.500000000000002 7.5000000000000009 11 21.500000000000004 15.500000000000002 12 21.500000000000004 13 14 15 16 17 18 19 12.500000000000002 20 16.500000000000004 21 22 5.5000000000000009 4.5000000000000009 23 11.500000000000002 24 18.500000000000004 21.500000000000004 16.500000000000004 25 16.500000000000004 26 27 28 29 18.500000000000004 4.5000000000000009 30 21.500000000000004 31 21.500000000000004 32
decision_type=2 1 2 9 1 9 1 1 1 9 9 2 1 2 2 1 2 2 2 2 2 2 2 2 1 2 2 1 2 1 1 9 1 1 1 9 2 1 2 1 9 2 2 1 2 9 2 2 2 9 2 1 9 1 1 2 2 9 2 1 2 9
left_child=1 4 9 6 16 20 18 41 50 12 25 27 -3 14 34 -16 17 29 19 -2 38 30 -12 -14 -8 26 57 58 -24 31 -15 -1 -11 -18 56 -31 59 -23 -4 -22 -39 42 43 -5 -45 -43 -46 48 54 -49 -7 -25 -35 -40 -29 -21 -9 -6 -10 -20 -52 -38
right_child=3 2 5 7 10 8 24 13 11 32 22 -13 23 21 15 -17 33 -19 36 55 39 37 28 51 -26 -27 -28 47 -30 35 -32 -33 -34 52 -36 -37 61 40 53 -41 -42 45 -44 44 46 -47 -48 49 -50 -51 60 -53 -54 -55 -56 -57 -58 -59 -60 -61 -62 -63
leaf_value=0.20174460880828526 0.13579289557602545 -0.041778674814771578 -0.29911477436792583 0.82576410409722278 0.28945025561675236 0.080636360428157167 0.54868874383660537 0.56200790950036872 -0.22598702320783134 -0.31441122931679949 -0.20961687668613449 0.21377884139622516 -0.36881935334717258 -0.091336421129034132 0.27457402065343928 -0.23420272345984827 0.52388932181139658 0.68575443580555229 0.0026116424475816306 -0.36396448643192197 -0.14096787030824628 0.41028197815643441 0.035376649989012597 -0.2373364623913771 0.23238046283646732 -0.095314482524662666 0.44146425770969366 0.22105253005031111 -0.1751621726345409 0.30400523052840889 0.44092483430824458 0.49878964225765421 -0.44110666802400955 -0.10783903801481519 0.51092991730060699 -0.011303409832107826 0.49422114047767479 0.60078711209667457 -0.27739458597550704 -0.37077671783960292 0.94121960608808886 0.44610223530621573 1.0070901591463801 1.0821198600416 -0.085176802999004417 0.84643318758328157 0.4588957934797222 -0.22894108515840408 0.16200256339992303 -0.066481543713713093 0.61651150349419392 -0.32072161428953105 0.13322746653684733 -0.10746491152995326 -0.13696938051366311 -0.17536907333863461 0.16694898882105919 -0.0080881719912561326 -0.32813519742111696 -0.17988843384636369 0.29449605123910028 0.078283266976728966
leaf_weight=2232 1377 1184 3456 1671 585 1048 2560 1196 1179 2432 4354 1832 8568 910 574 1619 1083 3390 2361 1377 585 2168 3110 3796 7550 1602 1602 298 1866 3960 1283 2628 11920 1140 3988 1350 684 2764 1180 4599 3840 4628 5367 1232 1232 2528 1232 2121 1439 2196 1048 4772 1167 2276 2580 1377 3588 4221 1179 1770 1572 4824
leaf_count=2232 1377 1184 3456 1671 585 1048 2560 1196 1179 2432 4354 1832 8568 910 574 1619 1083 3390 2361 1377 585 2168 3110 3796 7550 1602 1602 298 1866 3960 1283 2628 11920 1140 3988 1350 684 2764 1180 4599 3840 4628 5367 1232 1232 2528 1232 2121 1439 2196 1048 4772 1167 2276 2580 1377 3588 4221 1179 1770 1572 4824
internal_value=-0.00071146 -0.00809524 -0.0152685 0.0103642 0.00472303 -0.00728627 0.00274592 0.0149284 -0.00143013 -0.0222576 -0.00270317 -0.00490884 -0.0189416 0.0110301 0.00738258 -0.00608755 0.0123172 0.014233 -0.00212627 -0.00850884 -0.0152569 0.0146876 -0.00711991 -0.0200747 0.00937747 0.00244389 0.00474407 -0.00704148 -0.00265273 0.0111996 0.00544916 0.0150308 -0.0264587 0.00469027 0.0107501 0.00765038 0.000606909 0.0169973 -0.0114583 -0.0203511 0.0190354 0.0196983 0.021567 0.0171138 0.0125742 0.0169229 0.00519481 -0.00497455 -0.00172574 -0.00823489 0.0107123 -0.01662 0.000496331 -0.00749421 -0.00601112 -0.0147422 0.00727993 0.000977944 -0.014527 -0.00342532 0.0138931 0.00363108
internal_weight=159250 95550 61260 63700 34290 28588 23880 39820 16492 32672 17340 12824 18320 21930 10965 2193 16950 13560 13770 4131 12096 10965 9330 17136 10110 8010 6408 10992 4976 10170 2193 4860 14352 3390 8772 5310 9639 8772 6912 5184 6604 17890 10734 5367 3696 7156 2464 8634 4317 4317 3668 8568 2307 3456 2878 2754 4784 4806 2358 4131 2620 5508
internal_count=159250 95550 61260 63700 34290 28588 23880 39820 16492 32672 17340 12824 18320 21930 10965 2193 16950 13560 13770 4131 12096 10965 9330 17136 10110 8010 6408 10992 4976 10170 2193 4860 14352 3390 8772 5310 9639 8772 6912 5184 6604 17890 10734 5367 3696 7156 2464 8634 4317 4317 3668 8568 2307 3456 2878 2754 4784 4806 2358 4131 2620 5508
cat_boundaries=0 1 2 3 4 5 6 7 8 9 10 11 12 13 14 15 16 17 18 19 20 21 22 23 24 25 26 27 28 29 30 31 32 33
cat_threshold=2147 10 2051 10 10112 4163 4096 224 208 4 2100 35 272 1 8584 104 148 2048 3332 224 276 4096 145 3 192 193 4632 104 8448 4 80 1664 2
is_linear=0
shrinkage=0.05


Tree=14
num_leaves=63
num_cat=25
split_feature=1 7 7 0 0 7 0 0 7 7 7 7 0 0 7 1 0 0 0 0 0 7 7 0 1 1 7 0 1 7 7 1 7 0 7 0 0 0 0 7 0 0 7 7 0 7 0 0 7 7 7 0 0 0 0 0 7 0 7 7 1 0
split_gain=4794.76 1411.17 872.512 654.3 592.798 333.948 235.808 225.957 208.707 187.854 123.975 108.426 101.747 139.22 93.1384 86.2025 140.576 85.7762 191.909 63.2171 109.129 63.1458 57.2363 55.1134 52.5063 46.2595 45.0306 44.4184 43.996 42.8951 40.0974 38.6948 48.2594 57.0679 36.9325 36.2676 35.4385 29.3384 28.5038 28.1418 25.3206 23.3029 21.9262 21.8461 20.3774 19.3693 19.1615 18.7183 18.557 18.2166 17.8194 16.017 15.9741 15.4693 14.6025 12.7894 12.7319 12.3209 10.99 10.2871 10.0741 9.73661
threshold=3.5000000000000004 0 1 10.500000000000002 10.500000000000002 2 21.500000000000004 16.500000000000004 3 4 5 6 21.500000000000004 16.500000000000004 7 4.5000000000000009 11.500000000000002 12.500000000000002 11.500000000000002 12.500000000000002 11.500000000000002 8 9 21.500000000000004 4.5000000000000009 5.5000000000000009 10 12.500000000000002 4.5000000000000009 11 12 4.5000000000000009 13 20.500000000000004 14 7.5000000000000009 20.500000000000004 1.5000000000000002 15.500000000000002 15 18.500000000000004 15.500000000000002 16 17 13.500000000000002 18 20.500000000000004 8.5000000000000018 19 20 21 15.500000000000002 18.500000000000004 8.5000000000000018 13.500000000000002 3.5000000000000004 22 15.500000000000002 23 24 5.5000000000000009 22.500000000000004
decision_type=2 9 9 2 2 9 2 2 9 9 9 9 2 2 9 2 2 2 2 2 2 9 9 2 2 2 9 2 2 9 9 2 9 2 9 2 2 2 2 9 2 2 9 9 2 9 2 2 9 9 9 2 2 2 2 2 9 2 9 9 2 2
left_child=1 3 15 5 14 35 7 10 17 23 51 61 13 41 47 16 -2 18 28 20 25 -22 -20 38 42 -10 -9 -17 -4 52 -14 48 33 44 -26 43 54 -7 -6 -27 -31 -11 -19 -1 -33 55 -29 -3 -21 -30 -15 -5 -18 -39 -36 -16 -13 -12 -28 -24 -51 -8
right_child=2 4 8 6 9 37 11 26 19 12 57 56 30 50 45 27 29 24 22 31 21 -23 59 -25 34 39 58 46 49 40 -32 32 -34 -35 36 -37 -38 53 -40 -41 -42 -43 -44 -45 -46 -47 -48 -49 -50 60 -52 -53 -54 -55 -56 -57 -58 -59 -60 -61 -62 -63
leaf_value=-0.28406754549125746 0.24209721351110486 -0.31084626037004209 0.65756470122216515 -0.062171175311245365 -0.29768051329635892 -0.1428662808380004 -0.15727240587477348 0.35506502475494717 0.91470127301265325 -0.18537026888091221 0.18236750672216645 0.12965143498168655 -0.26431196316193173 0.23740323048299583 -0.38204558269430078 0.023531929662949837 -0.3611865586237768 0.56377457487258631 0.26593102286502346 0.37910331565007938 0.47617693863615201 -0.086440278080008426 -0.032944793570148435 -0.33572523358504736 0.74682214297145044 0.14614058172359848 0.46400071815791455 0.25617409611074587 0.39711526490555582 -0.16334211953238287 -0.15692075544586004 1.2687760563382142 1.0780125029765004 -0.18462051068809232 0.7393339733289328 -0.19372324430357662 0.28897003107641023 -0.0029641907712381513 -0.18960452735795708 0.52920683647338884 0.021399391772389011 -0.075375461647864669 0.19417910863465482 -0.23082481306006067 0.48126925803973042 -0.42526221815873771 0.084081567865086637 -0.24909391446558385 0.66908626524827219 0.38671207473823588 0.017130349835208846 0.037661987278355728 -0.19398854877132943 0.095825681383708894 0.55442976023006041 -0.33769394020425969 0.44108058308709241 0.31473335811594194 0.59685160445992824 -0.17992591049174786 0.15466062016749121 -0.08842330556401895
leaf_weight=4644 2180 10490 2903 3848 1836 1130 2073 3788 2574 4812 2244 2814 3411 1926 3114 6540 926 632 632 766 422 865 710 2754 4880 530 1310 6540 5607 1254 3807 265 4088 265 1683 5748 1683 4520 2754 2044 1254 2406 2271 3020 530 1316 2180 4196 521 1034 2886 1924 926 2260 3366 4152 105 1122 994 1561 2068 4146
leaf_count=4644 2180 10490 2903 3848 1836 1130 2073 3788 2574 4812 2244 2814 3411 1926 3114 6540 926 632 632 766 422 865 710 2754 4880 530 1310 6540 5607 1254 3807 265 4088 265 1683 5748 1683 4520 2754 2044 1254 2406 2271 3020 530 1316 2180 4196 521 1034 2886 1924 926 2260 3366 4152 105 1122 994 1561 2068 4146
internal_value=-0.000734066 -0.0078179 0.00989168 -0.00146827 -0.0136334 -0.00786512 0.00412837 0.00793828 0.0141112 -0.0085364 0.00296564 -0.00222149 -0.00593 -0.00311721 -0.0194645 0.00177442 -0.00302752 0.0117493 0.00903548 0.0194255 0.0159363 0.00291375 -0.00246297 -0.0153386 0.0144712 0.0191919 0.0153972 0.00383355 0.0119101 -0.00821101 -0.0106262 0.0229448 0.0248834 0.0148598 0.0159749 -0.0126658 0.0134826 0.000290404 -0.0120044 0.0144522 -0.00389198 -0.00750901 0.00845677 -0.0149269 0.0216981 -0.0236499 0.00616972 -0.016991 0.0151904 0.0101332 0.00347049 -0.00148737 -0.0139635 0.00153392 0.0155971 -0.0224986 0.00571868 0.0105746 0.0209594 -0.00615958 0.00697301 -0.00594799
internal_weight=159250 95550 63700 45690 49860 21322 24368 15230 41900 26592 9138 9138 19248 12030 23268 21800 6540 29030 14515 12870 6435 1287 2903 7344 14515 5148 6092 15260 11612 4360 7218 6435 5148 1060 11612 13412 6732 7910 4590 2574 2508 7218 2903 7664 795 8582 8720 14686 1287 8709 4812 5772 1852 6780 5049 7266 2919 3366 2304 2271 3102 6219
internal_count=159250 95550 63700 45690 49860 21322 24368 15230 41900 26592 9138 9138 19248 12030 23268 21800 6540 29030 14515 12870 6435 1287 2903 7344 14515 5148 6092 15260 11612 4360 7218 6435 5148 1060 11612 13412 6732 7910 4590 2574 2508 7218 2903 7664 795 8582 8720 14686 1287 8709 4812 5772 1852 6780 5049 7266 2919 3366 2304 2271 3102 6219
cat_boundaries=0 2 4 6 8 9 11 13 15 17 19 21 22 23 24 26 27 29 30 31 32 34 36 38 40 42
cat_threshold=1962414083 446 116196 64 81793024 40 2271610896 307 98368 79691777 168 1077936128 306 2181450752 65 1073741824 4 0 2 79691777 416 98308 17412 1073741824 121634832 1 1073741824 0 2 12582912 16851488 8397312 2185494528 3 2198217216 1 75497473 12 537395200 18 0 304
is_linear=0
shrinkage=0.05


Tree=15
num_leaves=63
num_cat=39
split_feature=1 5 0 7 5 7 7 5 7 5 5 7 7 5 1 0 0 5 7 1 7 7 0 0 0 0 1 0 7 7 5 0 0 5 7 5 7 7 0 5 5 7 1 0 0 7 1 5 5 5 5 0 5 7 5 5 5 1 7 5 0 0
split_gain=4356.16 3200.41 1207.22 787.829 690.345 498.916 358.376 297.933 266.683 262.535 245.589 223.921 161.261 152.165 115.414 110.934 170.738 90.792 89.534 81.6872 85.6116 81.2758 75.1193 73.8045 71.5529 81.8403 71.0993 100.324 69.6834 65.8374 59.1381 59.0427 65.71 52.6343 49.317 48.7459 47.8763 47.7863 42.476 42.0799 41.6897 41.0447 40.8768 39.6263 39.5137 41.3324 38.5113 38.4237 36.7334 36.4437 35.6285 35.5046 34.1508 33.0711 32.2783 31.4935 30.406 29.3402 46.6726 39.0307 47.526 30.1843
threshold=3.5000000000000004 0 14.500000000000002 1 2 3 4 5 6 7 8 9 10 11 2.5000000000000004 12.500000000000002 11.500000000000002 12 13 4.5000000000000009 14 15 9.5000000000000018 21.500000000000004 21.500000000000004 15.500000000000002 4.5000000000000009 11.500000000000002 16 17 18 21.500000000000004 8.5000000000000018 19 20 21 22 23 16.500000000000004 24 25 26 4.5000000000000009 8.5000000000000018 21.500000000000004 27 1.0000000180025095e-35 28 29 30 31 15.500000000000002 32 33 34 35 36 5.5000000000000009 37 38 19.500000000000004 19.500000000000004
decision_type=2 1 2 9 1 9 9 1 9 1 1 9 9 1 2 2 2 1 9 2 9 9 2 2 2 2 2 2 9 9 1 2 2 1 9 1 9 9 2 1 1 9 2 2 2 9 2 1 1 1 1 2 1 9 1 1 1 2 9 1 2 2
left_child=1 4 8 7 11 23 24 26 13 12 18 31 -5 37 29 16 42 -18 -7 33 50 43 -8 38 25 34 27 -2 -13 52 46 32 -1 -17 -6 36 -9 -3 -4 -28 -22 -14 -11 -10 51 -46 -30 -31 -25 -15 -21 -24 -12 -51 -40 -39 -44 59 -59 60 -43 -61
right_child=3 2 5 9 6 10 22 35 21 15 14 28 41 49 -16 19 17 -19 -20 20 40 -23 44 48 -26 -27 39 -29 30 47 -32 -33 -34 -35 -36 -37 -38 55 54 -41 -42 57 56 -45 45 -47 -48 -49 -50 53 -52 -53 -54 -55 -56 -57 -58 58 -60 61 -62 -63
leaf_value=0.013681970927363098 0.10214829093954024 -0.014150305352728055 -0.27825459635589617 1.020357734691794 -0.016937812373339158 0.046167495883960546 -0.237568810322243 0.75602139956786019 -0.3600177293163942 0.64188602820206853 0.052330386584832668 1.1154079731603854 0.47755733447677073 -0.37517512811715792 0.1927953872299682 -0.096892507172321451 0.24821305496250617 -0.21978804659158513 0.48899789892556672 1.2777330044999442 0.77850199806263909 -0.40286647660610203 -0.12378251098653337 -0.12315356590091842 -0.051464957255423729 0.51836463333815885 0.13590092774182416 -0.2535569557624035 0.33825205316427298 -0.38962333080044403 0.23455897490728292 -0.1099528989537987 0.32040558680006725 0.41616960664352121 0.21418647629622109 0.23056290045869243 0.28699101519061898 -0.067952977928480082 -0.27540797399377831 -0.067950657773554121 0.40126134814822018 0.31078046860836611 0.1455190212313294 -0.2933910017179619 0.13947567968264815 -0.22914616703134066 0.53922566969240859 -0.16087963731278787 -0.33851009952635885 -0.062225260525990228 0.69752782542771186 0.068825394942481216 -0.11413272274230267 -0.30444971676705479 -0.10148911821189302 -0.38448691020789333 0.38279169811799751 0.33089759680459602 0.76935711228602077 0.76853234083506161 1.7607380988096162 0.45523364478748474
leaf_weight=2255 1400 1896 3458 3540 1692 1631 4110 1200 8990 2205 2286 405 5750 2928 1832 914 577 1628 2030 808 2340 6616 2055 588 1413 1413 3479 2800 2092 858 1935 1353 3157 1291 2547 7090 1420 744 1174 6321 4184 1000 3609 5394 324 1731 5753 5118 4599 472 1488 2055 2730 4568 2284 1064 3006 2404 1056 3325 200 665
leaf_count=2255 1400 1896 3458 3540 1692 1631 4110 1200 8990 2205 2286 405 5750 2928 1832 914 577 1628 2030 808 2340 6616 2055 588 1413 1413 3479 2800 2092 858 1935 1353 3157 1291 2547 7090 1420 744 1174 6321 4184 1000 3609 5394 324 1731 5753 5118 4599 472 1488 2055 2730 4568 2284 1064 3006 2404 1056 3325 200 665
internal_value=-0.000718367 -0.00747043 -0.0143153 0.00940973 0.00476093 -0.00681405 -0.0022536 0.00218381 -0.0208833 0.01369 -0.00114883 0.011934 0.0181894 -0.0147749 -0.00441016 0.0100227 0.00648073 -0.00596372 0.0102561 0.0135737 0.0157256 -0.0242599 -0.00821099 -0.0145175 0.00640989 0.00893489 -0.00248394 -0.00792857 0.0166209 -0.00635007 0.0157406 0.00486347 0.00720621 0.00496599 0.00546119 0.00890947 0.0147529 -0.00635433 -0.0111481 -0.000153061 0.0127334 0.0158085 0.00959184 -0.0220786 -0.0047283 -0.0103893 0.0176894 -0.00988974 -0.019038 -0.0186764 0.0240676 -0.00189781 -0.00210903 -0.0159802 -0.00722961 -0.0121562 0.00762661 0.0180254 0.0144798 0.0204239 0.0121488 0.022825
internal_weight=159250 95550 61260 63700 34290 28588 17340 23710 32672 39990 16485 16950 17940 11672 12824 22050 11025 2205 3661 11025 8820 21000 10275 12103 7065 5652 14000 4200 10185 10992 9780 6765 5412 2205 4239 9710 2620 3704 6916 9800 6524 14400 8820 14384 6165 2055 7845 5976 5187 7968 2296 4110 5016 5040 3458 1808 6615 8650 3460 5190 1200 3990
internal_count=159250 95550 61260 63700 34290 28588 17340 23710 32672 39990 16485 16950 17940 11672 12824 22050 11025 2205 3661 11025 8820 21000 10275 12103 7065 5652 14000 4200 10185 10992 9780 6765 5412 2205 4239 9710 2620 3704 6916 9800 6524 14400 8820 14384 6165 2055 7845 5976 5187 7968 2296 4110 5016 5040 3458 1808 6615 8650 3460 5190 1200 3990
cat_boundaries=0 1 3 4 6 8 9 11 12 13 14 16 17 18 20 22 24 26 28 29 30 32 33 34 36 37 38 40 42 43 44 45 46 47 49 50 51 52 54 55
cat_threshold=2147 2215396 320 2051 67357828 336 3222945796 394 10128 1619005955 446 4163 4096 1111828193 345505793 156 4116 2100 2168455680 34 545792512 8 2202560576 1 603979776 88 1623196160 12 2049 8584 2147500032 136 35 52224 1082130433 20 656 8832 587334144 32 4194304 4 256 4096 8448 10784 1540 1073741824 4 8448 20 3332 3221225472 2 4096
is_linear=0
shrinkage=0.05


Tree=16
num_leaves=63
num_cat=39
split_feature=5 2 2 5 0 0 7 7 7 0 7 7 0 0 0 0 0 0 0 0 5 0 7 7 5 7 5 7 5 5 7 0 0 0 5 7 5 7 7 0 5 7 5 7 7 0 7 6 0 0 5 7 7 5 0 0 7 5 7 7 7 5
split_gain=3359.44 2611.85 828.74 1090.21 713.765 595.302 502.354 443.477 334.398 275.575 269.428 267.131 220.799 206.763 203.396 165.069 104.506 109.816 99.9794 133.457 94.691 88.6526 88.3699 83.3533 81.9166 81.741 75.3029 74.5168 66.1147 63.985 63.3394 62.8445 61.3172 71.6111 55.5499 54.055 54.0337 79.9832 75.7321 51.1265 48.1278 47.3101 45.9007 45.2328 44.7714 44.1251 42.9122 39.8146 39.5117 65.0521 51.7014 37.2625 37.0168 59.3202 36.4961 52.1482 35.2509 34.5995 33.4152 33.1409 32.4377 31.8939
threshold=0 1.0000000180025095e-35 1.0000000180025095e-35 1 4.5000000000000009 7.5000000000000009 2 3 4 4.5000000000000009 5 6 11.500000000000002 7.5000000000000009 14.500000000000002 4.5000000000000009 15.500000000000002 21.500000000000004 21.500000000000004 16.500000000000004 7 7.5000000000000009 8 9 10 11 12 13 14 15 16 21.500000000000004 21.500000000000004 11.500000000000002 17 18 19 20 21 19.500000000000004 22 23 24 25 26 16.500000000000004 27 28 14.500000000000002 21.500000000000004 29 30 31 32 21.500000000000004 9.5000000000000018 33 34 35 36 37 38
decision_type=1 2 2 1 2 2 9 9 9 2 9 9 2 2 2 2 2 2 2 2 1 2 9 9 1 9 1 9 1 1 9 2 2 2 1 9 1 9 9 2 1 9 1 9 9 2 9 9 2 2 1 9 9 1 2 2 9 1 9 9 9 1
left_child=2 4 3 11 25 35 15 12 28 20 -4 23 22 -11 24 61 41 58 19 34 -8 -17 -7 54 46 -2 43 -16 44 -20 -13 45 33 42 -14 -6 37 -12 -38 -28 59 -9 -32 -10 -3 -29 -15 -42 52 -50 -51 -26 -23 -54 55 -1 -27 -33 -18 -21 -44 -5
right_child=1 8 10 6 5 7 9 16 26 13 36 30 18 14 27 21 17 -19 29 40 -22 48 -24 -25 51 56 39 31 -30 -31 32 57 -34 -35 -36 -37 38 -39 -40 -41 47 -43 60 -45 -46 -47 -48 -49 49 50 -52 -53 53 -55 -56 -57 -58 -59 -60 -61 -62 -63
leaf_value=0.2034894272326552 -0.22659942384924783 0.12674753968828353 1.02931941450777 0.0038190684430453817 0.11104091072483868 -0.27449501437396456 -0.19902025520814812 -0.30363565315109398 1.4312286314031939 0.69877096550827167 0.68176266632367877 1.1517633076061931 0.15612023641978257 0.038364915557419901 -0.19780433880875015 1.0669943096772874 -0.14189876199112969 -0.3166840236008408 -0.28904483423164606 0.05180616225138053 -0.36465384695805875 -0.036619950825411252 0.023746988494144007 0.049044469680041662 -0.21216219827047311 -0.3458034454014639 0.48181820284020405 -0.0049471761627151167 0.19650884979628602 -0.10636248273168647 0.48024413561633428 0.062235574234345496 0.25420205546687707 0.7103455837183521 -0.15696739066482338 0.62698265351570837 0.65379496309085416 -0.0065441069285615333 0.42489346889218604 1.1172437750937496 -0.051973053159566976 -0.36907556621185234 0.54245564043657601 0.13976341821193722 -0.093673075748515452 0.24723895823624922 -0.18517856982815389 0.48358397947478055 0.46318385325287043 0.47073741098806005 -0.032538595982242312 -0.34980577712760169 -0.23498190754078011 0.3541729258534641 0.079153941185975546 0.49442818328809574 -0.39553734192942686 -0.13557315172691009 -0.25625347225196665 0.39507305567247503 0.1745942008922528 -0.18766060800489762
leaf_weight=2702 1788 2674 3045 1380 1464 6164 3116 5574 140 1274 1036 396 600 1060 1720 601 3960 4896 1563 933 1980 1360 768 4266 1430 7320 4730 2118 6419 3636 2205 1287 1455 2910 4599 1901 5264 1708 9982 1892 2253 4218 954 2037 5663 3177 2835 153 3005 672 1131 1045 320 1325 1158 3088 4352 1890 2568 1860 1206 1024
leaf_count=2702 1788 2674 3045 1380 1464 6164 3116 5574 140 1274 1036 396 600 1060 1720 601 3960 4896 1563 933 1980 1360 768 4266 1430 7320 4730 2118 6419 3636 2205 1287 1455 2910 4599 1901 5264 1708 9982 1892 2253 4218 954 2037 5663 3177 2835 153 3005 672 1131 1045 320 1325 1158 3088 4352 1890 2568 1860 1206 1024
internal_value=-0.000720251 -0.00758246 0.00696413 0.00369015 -0.0130774 -0.0101762 -0.00182168 -0.0117351 0.00654426 -0.00601081 0.0153863 0.0128305 -0.00683926 -0.00308365 -0.00457674 0.00705578 -0.0169226 -0.0136817 -0.00354235 -0.000711675 -0.0162677 0.0103637 -0.0142672 0.00764433 -0.0115856 -0.0232318 0.0142525 -0.000196232 0.00193688 -0.00920369 0.0191878 0.00173308 0.0182494 0.0201443 -0.00637623 0.0100892 0.0130333 0.00649964 0.0142042 0.016918 0.00495288 -0.020721 0.0160939 0.00610425 -0.00100036 0.00507082 -0.00700384 -0.000248344 0.00894023 0.0117512 0.00424293 -0.0186922 0.0044426 0.00945619 0.0110233 0.0126598 -0.0247646 -0.00382436 -0.00943627 0.00940064 0.0107373 -0.00449251
internal_weight=159250 84125 75125 54090 60570 47110 33750 43745 23555 22932 21035 20340 22529 17836 16562 10818 21216 11424 15597 10398 5096 8414 6932 11214 6370 13460 8799 10192 14756 5199 9126 8472 8730 7275 5199 3365 17990 2744 15246 6622 5199 9792 4365 2177 8337 5295 3895 2406 7813 4808 1803 2475 3005 1645 6948 5790 11672 3177 6528 2793 2160 2404
internal_count=159250 84125 75125 54090 60570 47110 33750 43745 23555 22932 21035 20340 22529 17836 16562 10818 21216 11424 15597 10398 5096 8414 6932 11214 6370 13460 8799 10192 14756 5199 9126 8472 8730 7275 5199 3365 17990 2744 15246 6622 5199 9792 4365 2177 8337 5295 3895 2406 7813 4808 1803 2475 3005 1645 6948 5790 11672 3177 6528 2793 2160 2404
cat_boundaries=0 1 2 4 6 8 10 12 13 15 17 18 20 21 23 24 25 27 28 29 30 32 34 35 37 38 40 42 44 45 46 48 50 51 53 54 56 58 60 61
cat_threshold=6243 2051 1083707459 142 4089971202 318 1141098704 370 76029953 140 1113925345 32 96 2210398720 34 1080033280 32 96 1610613248 286 260 67208192 16 9472 276 603979776 24 20 67226624 2080 1090535936 34 3544451088 17 1548 18528 1 1 1536 8 1073907712 98 2147894272 256 160 4096 2197842944 97 8388608 140 4096 2161008672 33 4096 19616 1 50332160 32 8421376 257 64
is_linear=0
shrinkage=0.05


Tree=17
num_leaves=63
num_cat=40
split_feature=5 2 2 5 0 0 7 7 7 0 7 7 0 0 0 0 0 0 5 0 5 7 0 7 5 5 7 0 7 0 7 7 5 7 0 0 5 5 5 5 7 7 0 7 7 7 7 7 7 0 0 5 5 6 7 5 7 5 7 5 0 0
split_gain=3081.05 2400.68 760.3 978.22 659.929 550.173 464.163 408.073 303.287 256.013 249.843 245.039 180.984 185.38 165.166 152.322 151.115 129.147 126.848 105.802 91.9911 80.069 79.8846 79.4914 78.3742 77.409 72.9887 62.4406 62.3612 57.7156 56.1201 52.0103 51.4986 51.4169 50.9286 49.6705 49.5256 49.3217 48.7355 45.7033 74.4324 68.8752 39.8129 39.2923 39.2095 38.6846 38.0364 38.0056 37.5215 36.2966 65.1723 44.9846 35.606 44.0186 34.7095 36.4355 34.5637 53.8015 33.7446 31.7405 31.293 41.206
threshold=0 1.0000000180025095e-35 1.0000000180025095e-35 1 4.5000000000000009 7.5000000000000009 2 3 4 4.5000000000000009 5 6 7.5000000000000009 14.500000000000002 15.500000000000002 21.500000000000004 4.5000000000000009 15.500000000000002 7 21.500000000000004 8 9 7.5000000000000009 10 11 12 13 21.500000000000004 14 10.500000000000002 15 16 17 18 21.500000000000004 19.500000000000004 19 20 21 22 23 24 16.500000000000004 25 26 27 28 29 30 14.500000000000002 21.500000000000004 31 32 33 34 35 36 37 38 39 21.500000000000004 8.5000000000000018
decision_type=1 2 2 1 2 2 9 9 9 2 9 9 2 2 2 2 2 2 1 2 1 9 2 9 1 1 9 2 9 2 9 9 1 9 2 2 1 1 1 1 9 9 2 9 9 9 9 9 9 2 2 1 1 9 9 1 9 1 9 1 2 2
left_child=2 4 3 11 21 33 16 14 28 20 -4 27 -11 25 18 30 -5 31 46 44 -8 59 -18 38 -10 45 -15 29 -3 -1 32 -9 -16 -6 42 -26 -17 -30 60 40 -12 -41 -28 -23 -19 -14 -7 -25 -27 56 -51 -52 -20 -54 55 -21 -24 -58 -22 -2 61 -13
right_child=1 8 10 6 5 7 9 17 24 12 39 23 13 26 15 36 22 19 52 54 58 43 49 47 35 48 34 -29 37 -31 -32 -33 -34 -35 -36 -37 -38 -39 -40 41 -42 -43 -44 -45 -46 -47 -48 -49 -50 50 51 -53 53 -55 -56 -57 57 -59 -60 -61 -62 -63
